317 100 156
been -0.1511891931295395 -0.19434212148189545 -0.9185225367546082 -0.7205806970596313 0.19399401545524597 0.43759995698928833 0.3814764618873596 0.18914110958576202 -0.5851830840110779 0.3460986018180847 -0.3255212604999542 0.6251423358917236 0.16430556774139404 -0.8668608069419861 -0.4771161675453186 0.8841931223869324 -0.21150313317775726 0.8265018463134766 -0.6205798983573914 0.022499818354845047 -0.47301167249679565 -0.43415507674217224 1.026463270187378 -0.6061839461326599 0.2520279288291931 1.0232930183410645 -0.5694733262062073 -1.063218116760254 0.2763161063194275 -0.27441224455833435 0.7153344750404358 0.14903710782527924 0.08790205419063568 -0.0028943163342773914 0.5149730443954468 -0.21587014198303223 0.10743480920791626 -0.4346996247768402 -0.1409473866224289 0.8956812024116516 -0.21205294132232666 0.7752660512924194 0.5813522338867188 0.12117058783769608 -0.4538421928882599 0.046102479100227356 0.4318690299987793 0.04576335474848747 -0.815092921257019 0.1209300234913826 0.47450804710388184 -0.6023560166358948 -0.8787978291511536 -0.16341595351696014 0.2716886103153229 0.30654868483543396 0.8712201118469238 0.32898610830307007 0.8826795220375061 -0.779984176158905 -0.08427062630653381 -0.029142774641513824 -0.3883649706840515 -0.40870800614356995 0.40080684423446655 0.6384462714195251 0.3141436278820038 -1.1491788625717163 0.20845568180084229 0.8117259740829468 0.2833542227745056 0.7472193837165833 0.706049382686615 -0.018723150715231895 0.4611437916755676 1.145071268081665 0.2938857674598694 -0.7123461961746216 -0.17863671481609344 -0.060292620211839676 -0.06733839213848114 0.7162960767745972 0.7089338898658752 -1.3227710723876953 -0.5295125842094421 -0.363192081451416 -0.7314119338989258 0.7321257591247559 -0.34193575382232666 -0.7162865400314331 -0.04526751860976219 0.7113965153694153 0.27944305539131165 -0.9433889389038086 -0.5429801344871521 0.0012242759112268686 -0.12949807941913605 0.610571026802063 -0.28839799761772156 -1.1286590099334717
bad 0.9158801436424255 0.0495419055223465 0.0949804037809372 0.46602150797843933 -0.22897641360759735 0.8467347025871277 -0.20558953285217285 -0.1750606745481491 0.08381524682044983 -0.20742207765579224 -0.8121738433837891 -1.0312248468399048 0.3241793215274811 0.2539992034435272 -0.24377332627773285 -0.7811384201049805 -0.7908022999763489 -0.19673290848731995 0.7457040548324585 -0.20480164885520935 0.34750896692276 -1.0983860492706299 0.2492435723543167 0.22023387253284454 -0.13377438485622406 0.5315319895744324 0.1009693592786789 0.2501932382583618 -0.35380637645721436 -0.03719363734126091 0.7653323411941528 -0.4046609401702881 0.6530364155769348 -0.13854263722896576 -0.04047092795372009 -0.3204064667224884 0.16009530425071716 0.9462207555770874 0.3119657337665558 1.1650160551071167 -0.09900672733783722 0.2769705057144165 0.37931933999061584 -0.08434643596410751 0.8437047600746155 -0.08216718584299088 -0.5626953840255737 0.30108463764190674 0.2724438011646271 0.8422805070877075 -0.7684617638587952 -0.4982324540615082 0.21505631506443024 -0.05761902406811714 0.20584484934806824 -0.26442599296569824 -0.2096652090549469 0.5009706020355225 0.825003981590271 0.1587747186422348 -0.4169493317604065 -0.5230480432510376 -0.24102869629859924 0.2396555244922638 0.8754857182502747 -0.0834999531507492 0.0036561929155141115 -0.21677565574645996 -0.7740733623504639 -0.3010038435459137 0.05706275999546051 -0.21573257446289062 0.41416800022125244 0.32771825790405273 0.5844242572784424 -0.34568455815315247 -0.0058839586563408375 -0.42970627546310425 -0.8071250319480896 -0.3556729257106781 -0.24334090948104858 0.946667492389679 0.6610302925109863 0.31589603424072266 -1.0282068252563477 -0.02074466273188591 -0.5160163640975952 -1.281022548675537 -0.16162364184856415 0.3762368857860565 0.09494377672672272 -0.4815620481967926 1.2004735469818115 0.429951936006546 -0.5397325754165649 -0.6490938663482666 0.034025467932224274 -0.7951961159706116 0.9381054639816284 -0.1569119095802307
vary 0.477790504693985 0.03695780411362648 -0.03821244835853577 -0.3156467080116272 0.7597138285636902 -0.202175110578537 0.2437499612569809 0.5712655186653137 1.293586254119873 -0.529352068901062 -0.45189106464385986 -0.4152423143386841 0.7233597636222839 -0.9936728477478027 -0.14337199926376343 -0.217678964138031 -0.12640976905822754 -0.6273177266120911 0.051573287695646286 0.030276188626885414 0.5291706919670105 -0.27996066212654114 -1.0340080261230469 0.5239335298538208 -0.36867791414260864 -0.2857028841972351 -0.2764298915863037 -0.08623704314231873 -0.1548261195421219 -0.0043732053600251675 0.20293554663658142 0.18744046986103058 -0.7366737127304077 0.2650749385356903 -0.36412230134010315 -0.14149174094200134 -0.022890498861670494 0.7386610507965088 -0.16111215949058533 -0.29024678468704224 -1.0278931856155396 -0.1004956066608429 -0.8914624452590942 0.7016218900680542 -0.9119845032691956 -0.06383601576089859 -0.297392874956131 -0.4173091650009155 -0.43418923020362854 -1.2401912212371826 0.046501025557518005 -0.6557212471961975 -0.11912421137094498 0.23460477590560913 0.22321122884750366 -0.25757384300231934 -0.24343615770339966 -0.7927886843681335 0.5517008900642395 -1.0199426412582397 0.1838185340166092 -0.7179416418075562 -0.7200289368629456 0.1631873995065689 0.580774188041687 0.011130199767649174 -0.4530119299888611 -0.3546454608440399 0.8032447099685669 -0.29389938712120056 -0.444759339094162 0.001398175023496151 0.10270694643259048 0.36986014246940613 0.05858401209115982 0.6435391902923584 0.448933869600296 -0.15401922166347504 0.929167628288269 0.7607723474502563 0.8147203326225281 0.8974254727363586 0.05674005299806595 0.7116647958755493 0.41138097643852234 -0.18268701434135437 0.19968439638614655 -0.20637854933738708 0.8859902024269104 0.022119009867310524 -0.3298267126083374 -1.3380801677703857 -0.5279123187065125 0.6789143681526184 0.3774169385433197 0.06923498958349228 -0.3883207142353058 -0.3411044180393219 -0.31058284640312195 -0.1809566169977188
about 0.24323050677776337 0.42646047472953796 -0.8123552799224854 0.34902864694595337 1.1169224977493286 -0.2126358449459076 -0.18061518669128418 -0.4146856665611267 0.34193024039268494 -0.9010461568832397 -0.2465556412935257 1.2591683864593506 0.1805494725704193 0.5241817831993103 -0.36195775866508484 0.1694086343050003 -1.0484206676483154 -0.08144288510084152 -1.6244559288024902 1.5958086252212524 -0.7339366674423218 1.0668357610702515 -0.7438604235649109 0.7402664422988892 1.129164457321167 0.3969899117946625 0.34850066900253296 -0.09928467869758606 1.4204543828964233 0.9338020086288452 0.2248740792274475 0.5649000406265259 0.7929403781890869 0.903412401676178 0.1643204391002655 -1.0235702991485596 -0.4849170446395874 0.823411226272583 -0.4999128580093384 -0.05445243790745735 -0.7955013513565063 0.4797012507915497 0.4586538076400757 -0.5009909272193909 0.614742636680603 -1.3715206384658813 0.4889114201068878 0.7133529186248779 -0.04770151898264885 0.0297370795160532 0.6857206225395203 -0.4796207845211029 -0.02925647422671318 -0.36320456862449646 0.8273678421974182 0.353458434343338 0.908882737159729 0.8253728747367859 1.0311267375946045 -0.9235550165176392 0.421030730009079 -0.7126766443252563 -0.2616775333881378 1.3958626985549927 -0.003844974562525749 0.18299607932567596 -0.2324236035346985 -0.4471406638622284 0.21710555255413055 -0.04978093504905701 0.10910246521234512 0.45656874775886536 -1.072644591331482 0.5528206825256348 0.44853755831718445 -0.12201031297445297 -0.25691714882850647 -0.0325055755674839 -0.04080430045723915 -0.13947917520999908 0.8797725439071655 -0.09860502928495407 1.4694316387176514 -1.056199312210083 -0.4593905210494995 0.560115396976471 1.4015710353851318 -0.19627870619297028 0.2079186737537384 -0.8401005864143372 -0.051711276173591614 1.6629828214645386 -0.2748647928237915 -0.5153335332870483 1.2820531129837036 -0.09045317769050598 -0.07206505537033081 -0.20277239382266998 -0.21970385313034058 0.3103373646736145
without -0.2623851001262665 -0.42697983980178833 1.186933994293213 -0.20794595777988434 1.1843479871749878 0.1986568123102188 0.19939114153385162 0.024696698412299156 -0.45102357864379883 -1.141702651977539 0.5467986464500427 0.06144915148615837 -0.8884738087654114 -0.5357459187507629 0.029795056208968163 0.30519285798072815 0.3179951608181 -0.06285902112722397 -0.2887454628944397 0.5694432854652405 -0.37465280294418335 0.3252834677696228 -1.293412685394287 -0.6323585510253906 -0.14538180828094482 -0.050424374639987946 1.8832623958587646 -1.2591474056243896 -0.4854183495044708 -0.8482325077056885 -0.5284947752952576 0.14204977452754974 0.35478854179382324 0.22588595747947693 0.22660410404205322 0.1610872447490692 0.6090525388717651 -0.059702709317207336 0.2605345547199249 0.49717724323272705 0.06523450464010239 0.8137043714523315 0.960708737373352 1.0947195291519165 1.1615972518920898 0.23193742334842682 -0.4763079285621643 -0.960330069065094 -1.2643420696258545 -1.445771336555481 0.16342850029468536 0.08695188909769058 -0.02809053473174572 0.29477158188819885 -0.2351991981267929 0.38280412554740906 1.1982402801513672 0.3724559545516968 -0.5645038485527039 -0.9034122228622437 -0.9148667454719543 0.5402701497077942 -0.0798652246594429 -0.13596448302268982 -1.008358359336853 0.3435943126678467 0.0875023603439331 0.18834877014160156 -0.6494160294532776 0.36136090755462646 -1.6783404350280762 -0.602111279964447 -0.5074590444564819 0.1332332193851471 0.2754879891872406 -0.3034719228744507 0.4128861427307129 -0.5852802395820618 0.3904770612716675 0.9772761464118958 -0.5883541107177734 0.6608409881591797 -0.6187824606895447 0.11308082193136215 -0.28053006529808044 -1.0626925230026245 -0.09652794152498245 -1.0949807167053223 -0.0033652421552687883 1.3072017431259155 -0.16422216594219208 -0.6801488399505615 0.7246689200401306 -0.5032480359077454 -0.17644396424293518 0.041329387575387955 -0.056588854640722275 -0.056084856390953064 0.1895371675491333 0.8686017990112305
advance 0.20177742838859558 -0.6161909103393555 -0.18900258839130402 -0.9050535559654236 0.8913365602493286 0.27136433124542236 -0.2781391441822052 -0.42554014921188354 1.0600336790084839 -0.36754441261291504 0.050241898745298386 -0.2769898474216461 0.08936331421136856 -1.644418478012085 -0.7023153901100159 -0.07357501238584518 -0.06251256912946701 0.27267706394195557 -0.1659708172082901 -0.06271102279424667 0.4386548697948456 0.1243240088224411 -0.01540831383317709 -0.05728374794125557 -0.20887528359889984 -0.37615111470222473 1.1111763715744019 -0.8827239871025085 -0.11925787478685379 0.5903679132461548 -0.7017568945884705 -0.6619682908058167 -0.06299551576375961 -0.37633848190307617 -0.009330793283879757 -0.32897961139678955 0.2787000238895416 0.2887524962425232 0.14985084533691406 -0.12376502901315689 -0.05909641459584236 -0.21044990420341492 -0.3825376629829407 -0.06066884845495224 0.37846753001213074 0.25028207898139954 0.4484280049800873 0.2987130582332611 0.5734676122665405 -1.3907785415649414 -0.408670037984848 -0.3611452281475067 -0.11566448956727982 -0.6984303593635559 1.2005633115768433 -0.688137412071228 -0.038310401141643524 0.2240748107433319 0.5566518306732178 -0.3660184442996979 -0.5213102698326111 0.8731973767280579 -0.3192998766899109 0.0964861735701561 -0.4990760385990143 -0.07162949442863464 0.8882080912590027 0.1819497048854828 0.09382065385580063 0.22506095468997955 0.10336488485336304 -0.3196367621421814 0.05050872266292572 0.07956592738628387 -0.5585997104644775 -0.08716543018817902 0.5497341752052307 -0.05954614281654358 -0.6133745312690735 -0.3257215917110443 0.40468448400497437 0.4927774667739868 0.47409629821777344 0.40574052929878235 -0.056017372757196426 -0.40285947918891907 0.2638058364391327 -0.3658139109611511 -0.19578872621059418 0.0036568816285580397 -0.45722195506095886 -1.3267717361450195 -0.39682459831237793 0.7033295035362244 1.0008931159973145 -0.3489815890789032 -0.22432191669940948 0.7026905417442322 -0.5375295877456665 0.026646463200449944
these -0.713776171207428 0.7625673413276672 0.23997282981872559 -0.7667535543441772 0.2969749867916107 -0.12591567635536194 -0.5817888379096985 0.4633718430995941 0.2765323519706726 0.5489856004714966 -0.08784420788288116 0.004927282687276602 -0.6048610806465149 -0.11483941227197647 0.13003090023994446 0.316202312707901 0.15113165974617004 -0.2951924502849579 0.43977245688438416 0.2821234464645386 0.3361338973045349 -0.15180285274982452 -0.01995188184082508 -0.26643598079681396 0.2804546058177948 0.38976365327835083 -0.10515139997005463 -0.09280512481927872 -0.9301220774650574 0.23251411318778992 1.0991286039352417 -0.6329798102378845 -0.968375027179718 -0.01546551939100027 -0.357969731092453 0.7541680932044983 0.7448431849479675 1.0516307353973389 0.05459165573120117 0.3658336102962494 -0.44174379110336304 0.8650961518287659 -0.7778198719024658 0.21067148447036743 -0.31212490797042847 0.2031400054693222 -0.4404458701610565 -0.2693268656730652 -0.014653367921710014 0.009897175244987011 0.6820285320281982 -0.5282819867134094 -0.7342497110366821 1.0079879760742188 -0.23318076133728027 0.2853929400444031 0.3847735822200775 -0.09572998434305191 -0.6608064770698547 0.9445794224739075 0.25072330236434937 -0.0041681877337396145 1.1070951223373413 -0.3359551727771759 0.4270678758621216 -0.5788189768791199 -0.344073086977005 -0.23681652545928955 -0.9428521394729614 -0.17087744176387787 -0.16877099871635437 -1.023323655128479 0.2798294126987457 -0.8340781331062317 0.744985818862915 0.5983259081840515 0.4670618176460266 0.3450278341770172 0.11453263461589813 0.7018247246742249 0.1387394517660141 0.03270098567008972 0.163888618350029 0.2545723617076874 -0.023208215832710266 0.288957417011261 -0.7341098189353943 0.688619077205658 -0.5180661678314209 0.690330445766449 0.4669765532016754 -0.5146448612213135 0.39698952436447144 0.6653828620910645 -0.8504921197891235 -0.843571662902832 0.030912546440958977 0.9428403377532959 0.6871768832206726 0.2065323144197464
offer 0.2462908774614334 0.2693568766117096 -0.1800059825181961 -0.26156461238861084 -0.1931522935628891 -0.6906337738037109 0.4831998348236084 -0.08596964925527573 0.5251884460449219 0.6027966737747192 0.06315167993307114 0.5420722365379333 1.0732553005218506 0.6231128573417664 -0.47663378715515137 0.03832836449146271 0.9993028044700623 0.2597809433937073 -0.24089251458644867 0.5043731331825256 0.6369655728340149 0.5762513875961304 -1.5709776878356934 -1.4400546550750732 0.21363119781017303 -0.07944096624851227 -0.04770062491297722 -0.689396858215332 -0.6347864270210266 -0.022011931985616684 -0.5105879306793213 0.7485312223434448 -0.49408158659935 -0.3441755175590515 -0.03849545493721962 0.2332277148962021 -0.6816730499267578 0.5228073596954346 -0.44042325019836426 -0.4489426910877228 0.35301724076271057 0.5975126624107361 0.9723491072654724 0.81819748878479 0.30914396047592163 -1.0553092956542969 0.2398223578929901 -0.8014965653419495 0.16412992775440216 0.18156057596206665 -0.618259608745575 1.7601497173309326 0.8812738060951233 -0.669231116771698 0.3335760831832886 -0.5630759596824646 -0.32582488656044006 0.12905389070510864 -0.14302144944667816 0.24149683117866516 -0.05527518317103386 -0.0020912850741297007 0.36881527304649353 -1.1753941774368286 -0.18758174777030945 -0.581207275390625 -0.26296672224998474 0.8533863425254822 -0.45635858178138733 0.44843927025794983 -0.22944623231887817 0.19590212404727936 -1.1133018732070923 -0.42978477478027344 0.6349920630455017 0.22846099734306335 -1.1128071546554565 -0.2594096064567566 0.07620008289813995 1.316908597946167 -0.23350515961647034 0.14595921337604523 0.8405607342720032 0.27658796310424805 0.17724153399467468 0.552670955657959 -1.1044561862945557 -0.8297986388206482 0.2837378978729248 -0.34849104285240173 -1.0446586608886719 -0.08493047207593918 0.9113931655883789 0.43253323435783386 0.8276602029800415 -1.2718490362167358 0.6645909547805786 -0.3909362256526947 -0.5966467261314392 0.28079622983932495
companies -0.2631736993789673 -0.46230560541152954 0.35425910353660583 -0.6212685704231262 0.0089386235922575 0.5347434878349304 0.17824958264827728 0.024490943178534508 0.1545836478471756 0.41913825273513794 0.1202961727976799 -0.09893179684877396 -0.6938706636428833 -0.128041610121727 0.2365439534187317 0.07555202394723892 0.16017891466617584 0.00668371981009841 0.21510373055934906 0.26367905735969543 0.5341266393661499 0.3902355134487152 -0.03524865582585335 0.05987103283405304 0.48186013102531433 0.43719449639320374 0.14872917532920837 -0.2736434042453766 -0.010936257429420948 -0.08718397468328476 -0.6017798185348511 0.573390543460846 -0.6151226162910461 -0.5719720125198364 -0.5485070943832397 -0.2907212972640991 -0.2683670222759247 0.02452837862074375 0.8508223295211792 -0.3366762697696686 0.38022416830062866 0.04909241199493408 0.3776571750640869 -0.18777677416801453 -0.1895078420639038 -0.07866848260164261 -0.21181805431842804 0.06785821914672852 -0.49818724393844604 0.3611548840999603 0.44541195034980774 0.46677717566490173 -0.054285649210214615 -0.6039390563964844 0.3687635362148285 0.021157490089535713 0.2825602889060974 -0.52033931016922 0.2634079158306122 0.04332398250699043 -0.19756190478801727 -0.12278471142053604 -0.34845593571662903 -0.25077617168426514 -0.13244155049324036 -0.4818808436393738 -0.44219544529914856 0.14778253436088562 0.06422136723995209 -0.2784515917301178 0.30522459745407104 -0.4759889245033264 -0.727195143699646 -0.19676436483860016 0.6011909246444702 -0.15559624135494232 -0.35300958156585693 0.17260994017124176 0.04692083224654198 0.14722861349582672 0.5648106336593628 -0.2109203338623047 0.34111014008522034 -0.1335427463054657 -0.41819173097610474 -0.42252981662750244 -0.7706829309463501 -0.37754371762275696 0.07951677590608597 1.0440117120742798 0.4043293297290802 0.28192779421806335 0.6194556951522827 0.1042894795536995 0.614798903465271 -0.822067379951477 -0.36440086364746094 0.25656843185424805 0.12982811033725739 0.4384751617908478
approved 0.47767651081085205 -0.46296563744544983 -0.24556615948677063 -0.35218170285224915 -0.7906325459480286 1.4503692388534546 0.629753053188324 0.6114290356636047 -0.48014694452285767 0.4722788631916046 1.3192368745803833 -0.715686023235321 -0.652032196521759 -0.1201881393790245 0.07668574154376984 0.44208914041519165 0.8745692372322083 0.20231316983699799 -0.5502439737319946 0.19002433121204376 -0.4183341860771179 -0.08992157131433487 -0.6461814641952515 0.6281726956367493 -0.15159890055656433 0.02776438184082508 -0.16494891047477722 1.4611254930496216 -0.28755974769592285 -0.03865324333310127 -0.8615342378616333 -0.9737682342529297 -0.6158963441848755 0.8073738217353821 -1.3463431596755981 -1.2905975580215454 0.6585602164268494 -0.003260137978941202 0.45037293434143066 0.14839909970760345 1.4432249069213867 0.41695070266723633 0.6038400530815125 0.02001241035759449 -0.4722912609577179 -1.3375775814056396 0.4478830397129059 0.5182958245277405 0.3560573160648346 0.44186967611312866 0.24896672368049622 -0.6087044477462769 -0.03218064457178116 0.4331851601600647 -0.25989460945129395 0.09416750073432922 -0.26262110471725464 -0.6138448715209961 0.4297349750995636 -0.593327522277832 0.3162165880203247 -0.04285166412591934 1.2410460710525513 -0.08059347420930862 1.2078269720077515 0.1366252899169922 -0.21501441299915314 -0.2388949990272522 0.3023926615715027 -0.2552145719528198 -0.6676298379898071 0.9391210079193115 0.5447100400924683 -0.600538969039917 0.04807094484567642 0.012399571016430855 -0.61043781042099 0.9229471683502197 -1.5851176977157593 -0.09723029285669327 -0.22214911878108978 -0.7028893232345581 -0.48116111755371094 -0.3114646375179291 0.07372221350669861 0.15119393169879913 0.34277641773223877 -0.8171091079711914 -1.0595132112503052 -0.0596468448638916 -0.3963138163089752 0.8950867056846619 0.22438086569309235 0.13834086060523987 0.27267202734947205 0.7849858403205872 -0.2674006521701813 -0.1854955554008484 -0.21536222100257874 0.08380091935396194
depending 1.0266510248184204 0.32372385263442993 -0.26609134674072266 -0.4401766061782837 0.5092733502388 0.42163434624671936 1.1895374059677124 -0.14682798087596893 0.970020055770874 -1.03700590133667 -0.8280985355377197 -0.14402535557746887 0.8428224325180054 -1.1242040395736694 -0.6568443179130554 -0.5948499441146851 -0.08526736497879028 -0.6557497382164001 -0.1442701816558838 0.2087956964969635 0.14539025723934174 0.3357490301132202 -2.0789248943328857 0.814355731010437 0.3045746088027954 -0.10602159798145294 0.0653100535273552 -0.06468742340803146 -0.2524053156375885 0.007414551917463541 -0.02836248278617859 0.34936806559562683 -1.0299561023712158 0.10701199620962143 -0.6164271235466003 -0.5027259588241577 -0.39250949025154114 0.44675469398498535 0.11898855119943619 0.1759885847568512 -1.131482481956482 0.9715720415115356 -0.8953036665916443 0.7514330148696899 -1.6385105848312378 -0.6861975193023682 -0.03808103874325752 -0.11096043139696121 -0.7208108305931091 -0.5237199664115906 0.2662724554538727 -0.17968441545963287 0.35844001173973083 -0.054041340947151184 -0.15741385519504547 -0.4109269082546234 -0.4023374319076538 -0.8460831642150879 0.23612695932388306 -0.8289529085159302 0.33588942885398865 -0.9280564785003662 -0.9669584035873413 0.546330988407135 1.8342479467391968 0.27543744444847107 -0.4229976236820221 -0.6763031482696533 0.13531222939491272 -0.3475552201271057 -0.22227883338928223 -0.3626442849636078 0.9340121150016785 1.1903190612792969 0.009347692131996155 0.6072419285774231 0.2383078634738922 -0.04030400514602661 0.22186912596225739 0.15580686926841736 0.7408520579338074 0.7990297079086304 0.3378475606441498 0.8311439156532288 0.5197535753250122 0.08917395025491714 0.15908893942832947 -0.9399797320365906 -0.7317810654640198 -0.05141860246658325 -0.6863535642623901 -0.9252672791481018 -0.9132541418075562 0.47532761096954346 0.32784807682037354 -0.5048393607139587 0.5022685527801514 0.025734061375260353 -0.7547098994255066 -0.8352833986282349
record 0.04247310385107994 -0.2866813838481903 -0.20398801565170288 0.3333684504032135 -0.9174206256866455 -0.9124487638473511 -0.1578836590051651 0.3900505006313324 0.21339330077171326 0.4404483735561371 0.14582669734954834 0.7650225162506104 -0.569013774394989 -0.8753448724746704 0.1093292236328125 0.7823628783226013 -0.102139912545681 0.694683313369751 -0.7926695942878723 -0.5697191953659058 0.5926814079284668 0.08762253075838089 0.10546618700027466 0.3705989122390747 0.5151136517524719 -0.31708037853240967 0.2537640631198883 0.2890810966491699 0.03780164197087288 -0.39647576212882996 0.021867213770747185 0.9463832378387451 -0.08920078724622726 0.6452711224555969 -0.6284664869308472 -0.3908545672893524 -0.7509124279022217 -1.281306505203247 0.3962617814540863 0.7587531208992004 -0.03526958078145981 0.5592946410179138 0.1402079313993454 -0.284828245639801 -0.41782745718955994 0.1797700822353363 0.2647935152053833 -0.0327112041413784 -0.18574367463588715 0.12961548566818237 -0.5968199372291565 -0.12959852814674377 -1.6308155059814453 0.47537338733673096 -0.638519287109375 -0.11821319907903671 0.2923828661441803 1.2941862344741821 -0.12179553508758545 -0.4506235122680664 0.7676026225090027 -0.13195128738880157 0.4954049587249756 -0.5736454725265503 -0.7899538278579712 -0.5876704454421997 0.09279473125934601 -0.27419939637184143 0.44366011023521423 -0.34187090396881104 0.49280792474746704 -0.4311175048351288 -0.26353245973587036 -0.2536672055721283 -0.6151446104049683 -0.006781203206628561 0.07837096601724625 -0.9700625538825989 0.07362842559814453 0.05846000090241432 -0.545321524143219 0.6341040730476379 1.3004704713821411 -0.6827521920204163 0.0998675748705864 -0.5877419114112854 -0.8549667000770569 0.1675669252872467 -0.5917848944664001 -0.4157642126083374 0.3467155992984772 0.3540361225605011 -0.021720070391893387 -0.7317845225334167 -0.6750832200050354 1.1624433994293213 0.0024036169052124023 0.40033408999443054 1.1396058797836304 -0.5873689651489258
customs -0.5869745016098022 0.2013038992881775 0.36233675479888916 1.0278939008712769 -0.45783549547195435 -0.8043180108070374 -0.37445786595344543 1.068800449371338 -0.3158385455608368 -0.1525227278470993 -0.12288011610507965 0.031104551628232002 0.3904827833175659 0.7467713952064514 0.5151441097259521 0.34079402685165405 0.8550821542739868 0.5644542574882507 -0.1890539973974228 -1.0249552726745605 0.636789083480835 -0.7189048528671265 0.1396639496088028 -0.2793315351009369 0.7320582866668701 -0.06752853840589523 -0.6214034557342529 0.5619519948959351 0.13112854957580566 -0.004791284445673227 0.362636923789978 0.630486011505127 0.06562570482492447 0.6906816959381104 -0.12531951069831848 -0.2570212781429291 0.6402156352996826 0.09742805361747742 0.19141584634780884 0.025208836421370506 -0.10966547578573227 0.7039272785186768 -0.09450823068618774 0.4633047878742218 -0.025709766894578934 0.18244081735610962 -0.5894240736961365 -0.055785100907087326 -0.3384275734424591 1.32928466796875 -0.7281894683837891 0.2578413784503937 -0.6814980506896973 -0.10249055922031403 0.3256095349788666 0.21948912739753723 0.552392303943634 0.3287314176559448 0.6621716022491455 0.25371530652046204 -0.1474698781967163 -1.2493418455123901 0.8803120255470276 0.40410086512565613 0.720874547958374 1.1273771524429321 -0.7858806252479553 0.6753043532371521 -0.4518068730831146 -0.14394325017929077 -0.6654776930809021 -0.42018911242485046 -0.3444574177265167 -1.0273922681808472 0.3342907726764679 0.12335717678070068 -0.47218167781829834 -0.39054450392723083 -0.3330470025539398 -0.13440249860286713 -0.23109470307826996 0.23850604891777039 -0.13394901156425476 0.6840232610702515 -0.8050597310066223 0.10406512022018433 0.0633326843380928 0.39947959780693054 0.3116390109062195 -0.47862154245376587 -0.08366444706916809 -0.09044533967971802 -0.8610880374908447 -0.16218672692775726 -0.8146566152572632 -0.15271525084972382 -0.3004615306854248 0.2286578118801117 0.29319947957992554 -0.275974303483963
state -0.5097891688346863 0.23866605758666992 0.24398212134838104 0.147836372256279 -0.6996058821678162 -0.31881478428840637 -0.4823128283023834 0.36757737398147583 0.8668084144592285 1.3375476598739624 -0.5448826551437378 -0.6016924977302551 -1.7270855903625488 0.2396421730518341 0.15460734069347382 0.36664626002311707 -1.0567057132720947 -0.4592294991016388 0.08441764861345291 -0.9680981040000916 0.4458601474761963 -0.5829257965087891 0.5777168273925781 0.5015231966972351 -0.20230741798877716 0.7587970495223999 -1.0103304386138916 -0.5672465562820435 -1.669895052909851 -0.3720460534095764 0.7152891755104065 -0.9191389679908752 0.9495538473129272 -0.3464595079421997 0.29270070791244507 -0.2537957727909088 -0.11574427038431168 0.6760402321815491 -0.5883458852767944 0.9198477864265442 -2.2220451831817627 -0.156200110912323 0.5013024806976318 0.6039798259735107 -0.39264121651649475 0.2673845887184143 -0.4012894928455353 0.14571510255336761 0.48203086853027344 -1.224709153175354 -0.021393269300460815 -0.28079333901405334 -0.03707706555724144 -0.23346596956253052 0.13172096014022827 0.21662653982639313 0.49391090869903564 -0.18915270268917084 0.28865259885787964 0.5645580291748047 0.35891616344451904 -0.043083563446998596 0.05982343479990959 -0.706179678440094 -0.3441995680332184 -0.5907055735588074 -0.006375388242304325 -0.08715397864580154 -1.0169017314910889 -0.13245509564876556 -0.37702253460884094 -0.8268647789955139 0.8154959678649902 -0.2793521285057068 0.6325975060462952 -0.3984895646572113 0.8328817486763 0.49122244119644165 -0.12193374335765839 0.5777620077133179 -0.6605646014213562 0.8889924883842468 -0.030192844569683075 -0.6726327538490295 -0.5218459963798523 -0.5900564789772034 -1.0412213802337646 0.7576057314872742 -0.10425204038619995 0.01152674201875925 0.5734876394271851 -0.7536655068397522 0.9510951638221741 0.12454384565353394 -0.5712233781814575 -0.29818326234817505 0.17001888155937195 0.8053662180900574 -0.18608015775680542 0.4539496600627899
recent 0.2660103440284729 -0.41997647285461426 -0.27783384919166565 -0.340742826461792 -0.7389068603515625 1.8310152292251587 -0.02117559127509594 1.1899142265319824 -0.21876531839370728 -0.7807508707046509 -0.7034969329833984 0.2008495181798935 0.6427545547485352 0.3153289556503296 -0.172652006149292 -0.06878428906202316 -1.1406673192977905 0.45993301272392273 1.2538764476776123 0.53299880027771 0.500243604183197 -1.1810195446014404 0.009526176378130913 -0.3884432017803192 0.5836577415466309 -0.6515859961509705 -0.21440215408802032 -0.05083479359745979 -0.20480972528457642 -0.5070965886116028 0.28986412286758423 -1.0474777221679688 1.2669017314910889 -0.39557334780693054 0.24337607622146606 0.10706540942192078 0.20750100910663605 0.7523263692855835 0.19220852851867676 0.30356311798095703 0.36524346470832825 0.12546055018901825 0.5133734941482544 0.23788711428642273 0.9962878227233887 1.114369511604309 0.5655713677406311 0.08232268691062927 0.2979797422885895 -0.5672718286514282 -0.2606299817562103 0.8337892293930054 -0.5445390343666077 0.13042883574962616 0.3258954584598541 -0.01683489792048931 -0.6017662882804871 -0.3303266167640686 0.5126283764839172 0.765600860118866 -0.7853811979293823 0.3919377624988556 -1.4407799243927002 -0.3140009641647339 0.08463530242443085 1.3768938779830933 0.7458735108375549 0.42769259214401245 0.5439696907997131 0.049345776438713074 0.4044170081615448 -0.16250067949295044 0.3868549168109894 -0.4057358503341675 -0.7782161831855774 0.585874080657959 -0.5108008980751038 0.061151549220085144 0.09079640358686447 -0.06783755868673325 0.8548403382301331 1.0146740674972534 0.4810482859611511 0.045893505215644836 0.22385931015014648 -0.001885796315036714 0.638725757598877 0.6216955780982971 0.18208564817905426 0.05451025813817978 0.06320185214281082 -0.20738281309604645 -0.21648679673671722 -0.09810598939657211 -0.6690456867218018 0.41786083579063416 -0.7360671162605286 -1.211460828781128 -0.09495261311531067 0.8065788745880127
they -0.30109038949012756 0.09337926656007767 -0.32300299406051636 -0.6829262971878052 -0.017001233994960785 0.9802168011665344 -0.014024723321199417 -0.5059733986854553 0.7863975167274475 0.8044184446334839 0.16661427915096283 -0.14364933967590332 -0.4477585554122925 -0.3009259104728699 -0.4257175922393799 0.09293635189533234 -0.6695325374603271 0.2892691493034363 -0.182427778840065 -0.21358701586723328 0.6341819167137146 -0.09166206419467926 0.6892106533050537 0.8747541308403015 -0.6277542114257812 -0.08880589157342911 -0.28577888011932373 -0.5546320676803589 -0.6268467307090759 -0.01077788695693016 0.3670434355735779 -0.7873374819755554 1.3800411224365234 -0.34755784273147583 0.6127275228500366 0.1989586353302002 0.001206778222694993 0.5341784358024597 -0.8776257038116455 0.3432973325252533 0.12075537443161011 0.17221970856189728 0.6607433557510376 -0.009174761362373829 -0.754974365234375 -0.09398452192544937 -0.30863964557647705 -0.02570004016160965 0.31401771306991577 -0.6791690587997437 0.43270841240882874 -0.5308755040168762 -0.5283080339431763 -0.06204647198319435 0.3201855719089508 0.09106889367103577 0.37086594104766846 0.3334725797176361 -0.20434582233428955 1.0091357231140137 0.5698844790458679 0.41588136553764343 -0.38833698630332947 0.17435450851917267 -0.40390893816947937 0.25336360931396484 -0.6320257186889648 -0.1673535704612732 -0.6441717147827148 -0.7847768068313599 -0.5272344350814819 -0.35524535179138184 0.14179223775863647 -0.09435687214136124 0.4319082498550415 -0.4072836935520172 0.4130644202232361 0.5595089793205261 -0.40907764434814453 1.4911361932754517 -0.04107951745390892 -0.5541923642158508 0.11012546718120575 0.48818978667259216 -0.06145099177956581 -0.7323223948478699 -0.9839704632759094 0.5199374556541443 -0.2634478509426117 -0.5323567390441895 0.14935503900051117 -0.31614190340042114 0.7574400305747986 0.1531657576560974 -0.474595844745636 -1.7287449836730957 -0.7075555324554443 1.5074104070663452 0.9110930562019348 -0.5796348452568054
breaking 0.7004851698875427 0.01080629788339138 0.28509390354156494 1.8341343402862549 0.28124040365219116 1.0128039121627808 0.4977276027202606 -0.16199859976768494 -0.2982795834541321 -0.13182486593723297 1.3404431343078613 -0.07217348366975784 1.4367365837097168 0.3636479079723358 -0.8062525987625122 -0.2123517543077469 0.8120367527008057 0.5135557055473328 0.6374245882034302 0.5214674472808838 -0.2736580967903137 -1.0906105041503906 -0.007853690534830093 0.8596401214599609 -0.18358999490737915 0.1338343322277069 -1.526836633682251 0.40971440076828003 -0.005241665989160538 -0.5981862545013428 0.07308926433324814 1.3436903953552246 0.34717369079589844 0.48155394196510315 -0.3126833140850067 -1.5367780923843384 -0.4437575340270996 -0.20343638956546783 1.2310622930526733 -0.2797654867172241 -0.24947959184646606 0.23823145031929016 0.5146952271461487 -0.16524039208889008 0.4949282109737396 -0.6776743531227112 -0.012232514098286629 -0.9104622602462769 -0.08999399840831757 0.40088388323783875 -0.8212628960609436 0.05109871178865433 0.9891471266746521 -1.8135018348693848 0.1556837409734726 1.2532707452774048 -1.3182231187820435 0.24162647128105164 1.3530738353729248 0.7436304688453674 0.6425414681434631 -0.6917909979820251 -0.6941418051719666 1.7885611057281494 0.15613140165805817 -0.4650311768054962 0.02001292258501053 1.583909511566162 0.28091350197792053 1.2924168109893799 -0.16241253912448883 0.35926389694213867 -0.07906181365251541 1.1001040935516357 0.009868714958429337 -0.2994031012058258 -1.4316487312316895 0.040768660604953766 -0.1225849986076355 0.8603300452232361 -0.2624266445636749 -0.028469543904066086 0.04326750710606575 -0.5489006042480469 -0.6357739567756653 -0.011234620586037636 -0.0921989232301712 -0.05549408495426178 -0.7363467812538147 -0.999420702457428 1.436549186706543 0.005544005893170834 -0.34853407740592957 0.5634698271751404 0.2580265998840332 2.2855026721954346 0.10454177856445312 1.2769677639007568 -0.3009684085845947 1.0292760133743286
based -1.1857144832611084 -0.09340392798185349 -0.4761357605457306 0.12370520085096359 -0.669689416885376 0.2780621349811554 -0.1748453974723816 0.4234309494495392 -0.5287325978279114 0.304389089345932 0.34953832626342773 -0.09106277674436569 0.19209180772304535 0.6664071083068848 0.8224999904632568 0.03196793049573898 0.009159519337117672 -1.0078073740005493 -1.1896878480911255 1.2720402479171753 -0.06296278536319733 -0.6748818159103394 -0.5447303652763367 1.1157982349395752 0.22462116181850433 0.1540333330631256 1.6685149669647217 0.6153462529182434 0.08578157424926758 -0.24439138174057007 -0.9078884720802307 0.1837085634469986 0.2566789984703064 -0.5640178322792053 0.7092140913009644 0.6331230998039246 -0.5780398845672607 0.5180462002754211 0.13807448744773865 0.10043058544397354 -0.009399325586855412 -0.10110907256603241 0.22126156091690063 -0.17644381523132324 0.4260006248950958 0.2644340693950653 0.450677752494812 0.1750541776418686 -0.0029190850909799337 -0.8658756613731384 1.7053524255752563 -0.00878596119582653 -0.42618682980537415 0.002389766275882721 -0.3888018727302551 0.2372893989086151 0.8578436374664307 -0.4124341905117035 0.28211498260498047 -1.552863597869873 0.1728445440530777 -0.6137269139289856 -0.6287707090377808 -0.8881049156188965 0.2792517840862274 0.9593110084533691 -0.6142107248306274 0.15555821359157562 -0.2830459773540497 -0.0469631552696228 0.7984551191329956 0.1694255769252777 0.35203003883361816 0.4552322328090668 -0.4285446107387543 0.45115748047828674 -0.3686586320400238 -0.8478533029556274 -0.23202525079250336 0.3687587380409241 -0.36823371052742004 0.005687418859452009 -0.34226709604263306 0.334592342376709 -0.12827187776565552 0.3106645941734314 0.41511717438697815 -0.351773738861084 -0.8623365759849548 -0.21540047228336334 -0.6186519861221313 -0.9480149149894714 0.7944544553756714 -0.03609694913029671 -0.20509828627109528 -0.0698435828089714 -0.2697678208351135 -1.060753345489502 -0.64894700050354 0.8713706135749817
agreement -0.47487491369247437 0.5731531381607056 -0.41679853200912476 -0.10467928647994995 0.38440147042274475 -0.6345090866088867 -1.6389825344085693 -1.6082521677017212 0.10484349727630615 1.4600512981414795 -0.1861208826303482 -0.8396828770637512 1.0946831703186035 0.2027561068534851 0.7409606575965881 0.3785260319709778 0.47105661034584045 0.3883252739906311 0.13702775537967682 0.3289547562599182 -0.550888180732727 0.1901286393404007 -0.1482398808002472 -0.6175874471664429 0.14548999071121216 0.2663801312446594 -1.1434489488601685 -1.0471247434616089 0.1985418200492859 -0.7889767289161682 -0.4161568284034729 1.0721187591552734 -0.8876477479934692 0.5673118829727173 -0.7116065621376038 0.08550750464200974 -1.0734766721725464 -0.2360004484653473 -0.3991093337535858 1.5123238563537598 0.4076409637928009 -0.7399274110794067 -0.5284188985824585 1.1516932249069214 0.08394744247198105 -0.2912697494029999 0.11673997342586517 0.4446275532245636 -0.8945956826210022 -0.1597214937210083 -0.05107298493385315 0.21671849489212036 -1.2010709047317505 0.6177460551261902 -0.1325700879096985 0.027003301307559013 1.4760169982910156 -0.9527235627174377 0.5259822607040405 -0.4062272906303406 -0.1501946896314621 1.1655937433242798 -0.28317388892173767 -0.0033381141256541014 -0.5865272879600525 0.16475386917591095 -0.2718726098537445 0.8274507522583008 0.9844008088111877 0.4584546685218811 0.16390490531921387 -0.09872337430715561 -0.05333970859646797 0.2883828580379486 0.5389853715896606 0.5677016377449036 -0.39981964230537415 -0.6069651246070862 -0.1848904937505722 0.12846031785011292 0.23359569907188416 0.7892815470695496 0.10512112826108932 -0.8124620914459229 1.0268299579620361 -1.31007981300354 -0.8301343321800232 0.36156564950942993 0.5428383946418762 1.2415497303009033 1.1000478267669678 -0.7394958138465881 -0.27832043170928955 -0.3229818642139435 -0.024353191256523132 0.0746225118637085 -0.2182856947183609 -0.7639011144638062 -1.2143503427505493 0.056687403470277786
old 0.6543609499931335 0.01795959658920765 -0.6368100643157959 0.562290370464325 -0.7605190873146057 0.854714572429657 0.1888594776391983 -0.0399942621588707 0.23170830309391022 0.7807587385177612 -0.14364227652549744 0.575641930103302 -0.21515759825706482 0.2773991823196411 0.021920638158917427 0.3612075746059418 -0.1673983633518219 0.5761824250221252 0.25175371766090393 -1.4451303482055664 0.017075736075639725 -0.04297918826341629 1.0285862684249878 -0.02410954236984253 0.31747156381607056 0.5063307285308838 -0.13950233161449432 -0.8127496838569641 -0.622602105140686 -0.5875804424285889 -0.02620667591691017 1.3821218013763428 1.2086268663406372 0.16509529948234558 0.6730175614356995 0.3594125509262085 -0.2007514089345932 0.03594381362199783 -0.40670573711395264 -0.6243346333503723 0.8391321897506714 -0.8828330039978027 -0.4068148732185364 0.986761748790741 -0.4843713641166687 0.5222627520561218 -0.04829397052526474 -0.2815568149089813 -0.5424935221672058 0.4555405378341675 0.8976156115531921 0.23365619778633118 0.9253915548324585 -0.40360206365585327 0.36192724108695984 -0.35353174805641174 -1.1189957857131958 -0.8148736953735352 -0.07879875600337982 -0.08530377596616745 -0.3731333315372467 -0.9737693667411804 0.5439334511756897 0.859693706035614 0.4556869864463806 0.44942036271095276 -0.5987961292266846 0.1347232609987259 -0.2308177798986435 0.4530244469642639 0.48268067836761475 -0.5627707839012146 -0.49698638916015625 -0.02468070015311241 0.46759289503097534 0.3822214901447296 0.8384600877761841 -0.32137593626976013 0.8736761808395386 -0.5696337223052979 0.9287998676300049 0.6680528521537781 0.884421169757843 -0.2564709484577179 0.4749876856803894 0.4949665069580078 -1.0818158388137817 1.2808769941329956 -0.10525813698768616 -1.166012167930603 0.21796615421772003 -0.3084591329097748 0.4192110002040863 0.14329899847507477 0.36000320315361023 -0.041025225073099136 -0.6142122149467468 -0.3470344543457031 0.6350796818733215 -0.4072629511356354
bill -0.33006319403648376 0.2798040807247162 -1.2182958126068115 0.4474342465400696 0.1369483470916748 -0.06516106426715851 0.7114530205726624 0.412964403629303 0.5397887229919434 -0.42640823125839233 -0.3005790114402771 0.5650550127029419 -0.26693102717399597 0.6325423121452332 0.04123641178011894 0.46377047896385193 0.24430400133132935 -0.4246847629547119 0.20872066915035248 -0.8768171668052673 0.3387865424156189 -0.3425334393978119 0.885140061378479 -0.5182353258132935 -0.018213903531432152 1.0969713926315308 -0.10643649846315384 -0.22065630555152893 -0.19543267786502838 -0.3556309938430786 0.31104665994644165 0.8669869303703308 0.47520557045936584 -0.4689972996711731 0.412140816450119 0.3012959063053131 -0.9038647413253784 -0.2754654586315155 -0.2377447634935379 -0.7389175891876221 0.7856044769287109 -0.17952336370944977 -1.0058282613754272 0.28877341747283936 -0.09845661371946335 -0.6742398142814636 -0.05721234157681465 -0.9376691579818726 -0.3339795470237732 0.2642957866191864 0.22868697345256805 -0.024508029222488403 0.3156345784664154 -0.7377196550369263 0.29916954040527344 -0.19979490339756012 -0.5220165848731995 0.15587642788887024 -0.10068167001008987 0.12057224661111832 0.34103429317474365 -0.10596252977848053 -0.19289711117744446 -0.2727145850658417 0.4516269862651825 -0.336465448141098 -0.30940479040145874 -0.3421938717365265 0.5243437886238098 -0.430585116147995 0.34493550658226013 -1.6070892810821533 -0.1603705734014511 -0.2035737931728363 0.2042308747768402 0.02343405969440937 0.18706455826759338 1.026726484298706 -0.14730966091156006 -0.40551480650901794 -0.1833910346031189 0.26380446553230286 0.3030359447002411 -0.23149581253528595 0.04433145374059677 0.33857569098472595 -0.6983566880226135 -0.18288812041282654 0.651763379573822 -0.23014719784259796 -0.1472271829843521 -0.4281468689441681 0.43530160188674927 -0.46190914511680603 -0.07587791234254837 0.4333001375198364 -0.10491065680980682 0.6452578902244568 0.2941495478153229 0.20061993598937988
allowance -0.14568787813186646 0.34675002098083496 -1.0708274841308594 -0.7815409898757935 -0.3279692828655243 -0.3717808127403259 -0.47147834300994873 0.004925942048430443 0.38167649507522583 -0.038177814334630966 -0.3529525697231293 0.008562969975173473 -0.8076701164245605 -0.4675580561161041 -0.8174390196800232 0.5205790996551514 -0.5157485008239746 0.48633891344070435 -1.040378451347351 0.5084882378578186 0.6432183384895325 -0.20823590457439423 -0.5867069363594055 0.25008225440979004 -0.7166983485221863 -0.156662255525589 -0.544598400592804 1.0206334590911865 -0.5813414454460144 -0.04322914406657219 1.0264111757278442 0.11392000317573547 0.07590331882238388 -0.50338214635849 -0.8070927858352661 -0.07732348889112473 0.3041668236255646 0.5467972159385681 -0.16849607229232788 0.30838340520858765 -0.7941306829452515 -0.12767000496387482 -0.4351130425930023 0.4562550187110901 1.262376308441162 0.47027313709259033 -0.1239202469587326 -0.25437456369400024 -0.10004471242427826 1.5037076473236084 -0.2182781845331192 0.03378340229392052 -0.19034209847450256 0.058981750160455704 -0.10204097628593445 0.06544078886508942 1.1686785221099854 -0.1563228815793991 -0.27823251485824585 -0.1920747309923172 -0.57581627368927 -0.1266760230064392 0.5887205004692078 -0.9993108510971069 -0.2024136483669281 -0.6016125679016113 -0.6959288716316223 0.9176364541053772 -0.5085222721099854 0.45324787497520447 0.7856188416481018 0.6875594258308411 0.7845944166183472 0.3297693431377411 -0.26307055354118347 1.0268800258636475 0.47848206758499146 0.5219616889953613 -0.9031802415847778 -0.1429951786994934 0.7488458156585693 -0.7113934755325317 0.5122533440589905 0.14131490886211395 0.2828705608844757 0.5853339433670044 0.7808254957199097 0.6044886112213135 0.6214383244514465 0.8171373009681702 0.04099317267537117 1.079750418663025 0.5936370491981506 -0.09809817373752594 -0.4844602346420288 -0.16686494648456573 -0.4495721161365509 -0.28405916690826416 1.232054352760315 0.14879104495048523
completed 0.4116870164871216 -0.8695774078369141 -0.7420641183853149 0.13333769142627716 -1.4205960035324097 0.6749718189239502 1.2300418615341187 0.2883383333683014 0.014885792508721352 0.2681465148925781 0.5064529180526733 0.3983982503414154 -0.49141988158226013 -0.9451377391815186 0.11421387642621994 0.9832555055618286 0.6133559346199036 0.08111728727817535 -0.5946599841117859 0.5986091494560242 0.09820204973220825 -0.08103759586811066 0.055691611021757126 -1.0768332481384277 0.24982886016368866 0.5113821625709534 -0.5010631084442139 -0.539056122303009 -0.06364601850509644 -0.9178407788276672 1.199380874633789 0.28730592131614685 -0.09655110538005829 0.4430329501628876 0.9353185296058655 -0.6581823825836182 0.5195397138595581 -1.4021499156951904 -0.14453133940696716 2.0217745304107666 1.2872062921524048 0.15520843863487244 0.6289498209953308 -0.7692412734031677 -1.154505968093872 0.2553696036338806 -0.0897144302725792 0.17579607665538788 0.3854016661643982 -0.15320129692554474 -0.2922380268573761 0.04264794662594795 -1.2062461376190186 -0.45856931805610657 0.8270320296287537 -0.5112951397895813 -0.6402745246887207 0.7710202932357788 0.9886213541030884 -1.0540657043457031 -0.1547197550535202 -0.25920042395591736 0.018423279747366905 -0.5023844242095947 0.05839386582374573 0.3829532861709595 -0.056673116981983185 -0.6470233201980591 -0.35874342918395996 0.3902195692062378 -0.44425153732299805 0.14426374435424805 0.6204051971435547 -0.3826698958873749 0.39514514803886414 0.15115979313850403 0.38761481642723083 -0.7491146922111511 0.396496444940567 -0.6877275705337524 -1.2132319211959839 0.6531231999397278 0.5032419562339783 -0.14887407422065735 0.08079864084720612 -0.052998535335063934 -0.5896226167678833 -0.4616835117340088 -0.724040150642395 -0.12606611847877502 -1.1577122211456299 1.0274757146835327 -0.06949779391288757 -1.0547209978103638 0.34216585755348206 1.5895525217056274 0.12191540747880936 0.2899586260318756 0.5131845474243164 -1.215613603591919
then 0.8971744775772095 -0.7359657883644104 -0.0795203149318695 -0.3548135459423065 0.5910711288452148 1.0010555982589722 0.7785002589225769 1.1292450428009033 -0.047187987715005875 -0.5689982771873474 -1.6799112558364868 0.9105636477470398 0.36606305837631226 0.05229341611266136 -0.5517967343330383 -0.29298102855682373 -0.22234313189983368 0.27568477392196655 0.19333221018314362 -0.008770338259637356 -0.28505226969718933 0.14542540907859802 0.0811924859881401 0.05562998726963997 -0.13218751549720764 0.26631903648376465 -0.3875948190689087 -0.13093115389347076 0.7405603528022766 0.11092804372310638 0.4150204658508301 0.2562035024166107 0.9306533336639404 -1.0643256902694702 0.20329652726650238 1.0362886190414429 0.8066688179969788 0.6850628852844238 -0.44823381304740906 0.30143702030181885 0.5630975961685181 -0.7223679423332214 -0.6106006503105164 0.6542662382125854 0.2905474305152893 0.6241884231567383 0.9017091989517212 0.5442941188812256 0.295046329498291 0.5064249038696289 -0.41992083191871643 0.21306589245796204 -0.1782722771167755 0.5859600305557251 0.3583036959171295 -0.4072476029396057 0.3067937195301056 -0.4809044301509857 -0.8556882739067078 0.329515278339386 0.1997823268175125 0.6489589214324951 -1.0417091846466064 0.19109541177749634 -0.73695307970047 -0.34114253520965576 -0.18611028790473938 1.2624794244766235 -0.32766181230545044 0.7119168043136597 -0.03459911793470383 -0.13814480602741241 -0.2574706971645355 0.16764922440052032 -0.5478463768959045 0.521260678768158 -0.8047887086868286 -0.39198794960975647 -1.7669503688812256 -0.04345155134797096 0.8497526049613953 -0.4057689309120178 0.32555118203163147 -0.5827240347862244 0.729715883731842 0.13931576907634735 0.5979836583137512 -0.5821727514266968 1.3908178806304932 0.6023901104927063 0.38295215368270874 -0.2602175176143646 0.004788834135979414 -0.46018916368484497 -1.020419955253601 -0.008181569166481495 0.1472456008195877 -0.620836079120636 0.8039807081222534 0.12126371264457703
an 0.5646851658821106 0.6211258172988892 0.050187788903713226 -0.1381562203168869 -0.06142869219183922 -0.10780373215675354 0.1130625531077385 -0.5873603820800781 0.09794063121080399 -0.22573527693748474 -0.1441977620124817 0.4575759470462799 -0.2678873538970947 -0.576065182685852 -0.5317721366882324 -0.6488418579101562 -0.37500593066215515 0.45055025815963745 -0.5440480709075928 0.32354629039764404 0.09665173292160034 0.39195552468299866 0.8606389760971069 -0.5398793816566467 0.26824700832366943 0.40607741475105286 0.6053827404975891 -0.01835031993687153 -0.020627528429031372 -0.2737857401371002 0.43514594435691833 -0.5578237771987915 1.1881550550460815 -0.14191605150699615 -0.7523825764656067 -0.21043533086776733 0.15799051523208618 0.1060938611626625 -0.31712818145751953 0.7649127840995789 -0.10636670142412186 0.2918309271335602 0.5586620569229126 -1.4532312154769897 -0.13906316459178925 -0.33040693402290344 0.17035669088363647 -0.16464899480342865 0.10638201236724854 -0.11351723223924637 -0.1863507181406021 -0.7120041251182556 -0.6109225749969482 -4.101475060451776E-4 -0.03204568475484848 0.6699408292770386 -1.0882676839828491 -0.046997129917144775 0.6043019890785217 -0.498212993144989 -0.01217924989759922 -0.7108526825904846 0.1712094247341156 -0.781487762928009 -0.36444711685180664 -0.4286337196826935 0.07396077364683151 -0.1452612429857254 0.14491607248783112 -0.270273357629776 0.4735848903656006 0.226048544049263 -0.42285799980163574 0.0649724081158638 0.21641181409358978 0.8904507756233215 -0.6254839897155762 0.07981457561254501 -0.4616813361644745 0.1427685171365738 0.3476700484752655 0.08395346999168396 -0.16890817880630493 -0.2533908188343048 0.3687728941440582 0.41415631771087646 0.30773329734802246 0.46087411046028137 0.36711934208869934 0.3751791715621948 -0.15118341147899628 -0.20058773458003998 0.7031362056732178 -0.1360727697610855 -0.5250118970870972 -0.40944644808769226 -0.3228607177734375 -0.12239772826433182 -0.17302662134170532 -0.2190721184015274
each -0.03925618156790733 -0.29501280188560486 -0.4109679162502289 0.23413990437984467 -0.36604800820350647 1.1715120077133179 0.059985097497701645 -0.10709632933139801 0.4492631256580353 -0.31119146943092346 0.19867075979709625 -1.1818598508834839 -0.5747746825218201 -0.27312469482421875 -0.7164848446846008 0.8897799253463745 -0.9835257530212402 -0.07827485352754593 -0.7640893459320068 0.10288500785827637 0.3507814407348633 -0.9022011756896973 1.549425721168518 0.4978807866573334 -0.3109852075576782 -0.47304874658584595 0.6904579401016235 -0.028087591752409935 -1.2430425882339478 0.34539130330085754 0.3439981937408447 -0.2353111058473587 0.7726494669914246 -0.09459254145622253 1.3187811374664307 -0.11092057079076767 -0.23004122078418732 0.285094290971756 -0.8359357118606567 -1.112417221069336 0.8027451038360596 -0.671673059463501 0.057496458292007446 0.13958008587360382 0.18476738035678864 -0.41207849979400635 -0.05715116113424301 -0.32844072580337524 0.7235865592956543 1.0714040994644165 1.0032800436019897 -0.050489868968725204 0.6177206635475159 0.055004630237817764 1.1575636863708496 0.38838836550712585 0.10268925875425339 -0.24801470339298248 0.9271210432052612 -6.054261757526547E-5 -0.9144887924194336 -0.26233094930648804 0.6620568037033081 0.5077663660049438 1.2533130645751953 -0.27801036834716797 0.3718630373477936 0.11125898361206055 -0.1953589916229248 -0.5193474888801575 0.2560572624206543 0.18645353615283966 0.323429673910141 -0.4587235152721405 -0.42804333567619324 -0.3578282594680786 0.6281774640083313 0.8680689930915833 1.2529304027557373 0.19981887936592102 -0.5582874417304993 -1.4906941652297974 0.07493884116411209 0.06861929595470428 -1.1643768548965454 0.5283881425857544 -0.3017016649246216 -0.25173792243003845 -0.3089311122894287 -0.4484117329120636 0.8050815463066101 -0.5000746846199036 -1.0836365222930908 0.0847553238272667 0.4356350898742676 0.3698533773422241 -0.7820227742195129 -0.3973384499549866 0.31868976354599 -0.6677310466766357
buyer 0.061542313545942307 -0.6445180773735046 -1.169486403465271 0.6560766100883484 -0.4140315651893616 -0.517679750919342 0.08689970523118973 0.48352155089378357 0.06687206029891968 -0.15101799368858337 -0.3726649880409241 0.5019643902778625 0.3229897916316986 0.779392421245575 0.9811524748802185 0.15196987986564636 0.25391268730163574 0.4027867913246155 -1.033305048942566 0.6854385733604431 0.23335014283657074 0.6770870685577393 -0.45709383487701416 -0.3650493323802948 0.0809520035982132 0.05038720741868019 -0.2763751149177551 0.02164311148226261 0.23677630722522736 -0.22272489964962006 0.7995226383209229 0.480555921792984 0.037103988230228424 0.2216465324163437 0.11986148357391357 -0.0722988098859787 -0.3387259840965271 0.08686947077512741 -0.2544300854206085 0.13735277950763702 0.24134309589862823 -0.789076566696167 0.26377546787261963 -1.0832234621047974 -0.21044941246509552 -1.1743601560592651 -0.35013943910598755 -0.23450562357902527 -0.38999882340431213 -0.41679784655570984 -0.3857080638408661 -0.3857770562171936 -0.16884566843509674 -0.3170584738254547 0.17034141719341278 1.3263986110687256 -0.03154625743627548 0.6254447102546692 0.756412148475647 -0.33300474286079407 0.3832262456417084 -0.0659928247332573 0.9911437630653381 0.6462491750717163 0.033165980130434036 -0.2722873091697693 -0.34384602308273315 -0.29609668254852295 0.22080294787883759 1.1344408988952637 0.4035036265850067 0.8426804542541504 -1.3685777187347412 -0.024504229426383972 -0.029753096401691437 -0.49385643005371094 0.5417634844779968 -0.03420403599739075 -0.5513651967048645 -0.1478106677532196 1.139570951461792 -0.3824150562286377 -0.049655184149742126 0.3565443158149719 0.019969269633293152 -0.7781442999839783 -0.0893654078245163 -0.05981559306383133 0.31129422783851624 0.3854179084300995 0.1667337715625763 0.140787735581398 -0.16946004331111908 0.2308943122625351 0.3119328022003174 -0.18648913502693176 -0.9147574305534363 -0.20562191307544708 -0.48380011320114136 0.19776827096939087
as -0.4965353310108185 -0.0645596906542778 -0.26200997829437256 0.5545351505279541 0.04994576796889305 0.1251944899559021 0.2719201147556305 -0.40207844972610474 0.026878489181399345 -0.12620790302753448 -0.5100406408309937 0.48775240778923035 0.025062352418899536 -0.020780004560947418 0.6003453135490417 -0.3884503245353699 0.01139382179826498 0.3440410792827606 -0.6401998996734619 -0.13506056368350983 0.20876863598823547 -0.21249507367610931 0.15796975791454315 0.251249223947525 0.6799432039260864 0.08896778523921967 -0.572470486164093 0.44465139508247375 -0.15978938341140747 -0.24451997876167297 0.2735304534435272 0.35199952125549316 0.13994386792182922 -0.1618080735206604 0.010324059054255486 0.14853361248970032 -0.3291880786418915 -0.5184869170188904 0.5748586058616638 0.2724234461784363 -0.18831059336662292 -0.11359269917011261 0.7092987298965454 0.00945328176021576 0.47857338190078735 -0.5508571863174438 0.1506134271621704 0.01749388314783573 -0.5009320378303528 -0.10186516493558884 0.36967119574546814 0.3078019917011261 -0.8071116805076599 -0.04650634527206421 0.16167910397052765 0.20376810431480408 -0.15271279215812683 0.5630738735198975 -0.31558334827423096 0.4455651342868805 -0.5975942015647888 0.2571347951889038 0.3354714512825012 0.6538796424865723 -0.357827365398407 -0.2629041373729706 0.14417129755020142 0.06572303175926208 -0.3367461562156677 -0.7290711998939514 0.3816959261894226 -0.009020705707371235 -0.3142748475074768 -0.4562721252441406 0.44945767521858215 -0.26241159439086914 -0.05420020967721939 0.503018319606781 0.3866918385028839 -0.14319251477718353 0.4504905939102173 -0.021415382623672485 0.141934335231781 -0.7817293405532837 -0.5859437584877014 -0.3263382017612457 0.0879182294011116 -0.3918212950229645 -0.3389096260070801 0.6629575490951538 0.27416694164276123 -0.91353440284729 0.01694878377020359 -0.1522946059703827 -0.22487026453018188 0.11393406987190247 -0.0389409177005291 -0.183341383934021 -0.09307524561882019 -0.6224068999290466
charges -0.4869023263454437 0.479575514793396 0.0585639663040638 0.21298688650131226 0.48037025332450867 -0.14557060599327087 0.8203747868537903 0.10636447370052338 -1.1705790758132935 -0.2622375786304474 -0.7886779308319092 0.7497747540473938 -0.13148579001426697 0.025631433352828026 0.26086047291755676 -0.2996053099632263 0.5225321054458618 1.1721574068069458 -0.7361922860145569 1.2180812358856201 0.555694580078125 -0.7092830538749695 -0.6235372424125671 0.027919897809624672 0.060247816145420074 0.4562036693096161 0.21404506266117096 0.026060286909341812 0.31154245138168335 -0.8096458911895752 -0.6808550357818604 -0.3357912003993988 0.16653704643249512 -0.03421596810221672 -0.058978404849767685 -1.259356141090393 -0.025805078446865082 -0.6788678169250488 -1.0728912353515625 -0.39966803789138794 -0.9597600102424622 -0.30013182759284973 -0.24162159860134125 -0.550377607345581 -0.6496337652206421 -0.48008400201797485 -0.7398601770401001 0.8020002841949463 0.18827909231185913 -0.2029770314693451 0.33235374093055725 -0.3258824944496155 0.02980424463748932 -0.5786542296409607 -0.2215593010187149 0.11069570481777191 -0.604013979434967 -0.3431202471256256 0.36649149656295776 0.6689585447311401 0.4546605050563812 -0.28575241565704346 1.5751487016677856 0.6318657994270325 -0.29361650347709656 -0.39728063344955444 0.1456824094057083 0.22019974887371063 -0.32110753655433655 0.1749756783246994 -0.4918556809425354 -0.602606475353241 -0.4743892550468445 0.1589668244123459 -0.08410298824310303 -1.0693637132644653 0.06171580031514168 0.5165379643440247 0.596306324005127 -1.0515036582946777 -0.3118559718132019 -0.46988195180892944 -0.8880682587623596 -0.08542574942111969 -0.5800745487213135 -0.16669930517673492 0.5086072683334351 -0.07369497418403625 0.49274593591690063 -0.42235785722732544 -0.7118617296218872 0.253170371055603 -0.38386791944503784 0.3586416244506836 0.2290874868631363 0.04372711479663849 0.40449729561805725 0.0589204840362072 0.4749661386013031 0.3217986524105072
at -0.2628508508205414 -0.4244854152202606 -0.04701968654990196 -0.7456249594688416 -0.2607409358024597 0.9365974068641663 0.3928932547569275 0.8163097500801086 0.21964898705482483 -0.1583554446697235 -0.22262701392173767 -0.31115755438804626 -0.14212779700756073 0.9962161183357239 0.09551635384559631 -0.2398768663406372 0.9122037291526794 -0.5892679691314697 -0.17069169878959656 0.5769172310829163 -0.25946664810180664 0.4400636553764343 -0.6185344457626343 -0.2788770794868469 0.15118223428726196 0.74952232837677 0.8362374901771545 -0.48966556787490845 -0.2944601774215698 0.6049118041992188 0.6251643896102905 0.7743207216262817 -0.4449934661388397 -0.4424832761287689 0.8644331097602844 0.44096580147743225 -1.148308277130127 0.7457475662231445 -0.9617770314216614 -0.5740478038787842 -0.1441454142332077 0.6308247447013855 0.529626727104187 0.008391065523028374 0.042090464383363724 -0.07171811163425446 0.7905824184417725 -0.3802080750465393 -0.1044764444231987 0.16098862886428833 -0.07070622593164444 -0.26689013838768005 -0.035194605588912964 -0.8590391278266907 -0.185249462723732 1.189772605895996 -0.30851027369499207 0.08306923508644104 -0.8087678551673889 -0.1892053782939911 0.1507977992296219 -0.5985441207885742 -1.137585997581482 -0.22235171496868134 0.42805665731430054 0.18988235294818878 -0.25228989124298096 0.24480301141738892 0.757038414478302 -0.5708606839179993 0.3645366430282593 -0.714091956615448 0.28979846835136414 -0.8107277750968933 -0.4050169885158539 0.3123905658721924 0.3801991641521454 0.7431778311729431 0.41459062695503235 0.49932152032852173 -0.5122995972633362 -0.43234947323799133 -0.4536229372024536 -0.36796191334724426 0.15255782008171082 0.5165160298347473 -1.3229103088378906 0.2223944067955017 -0.15722857415676117 -0.08316374570131302 0.1401587724685669 -0.16742512583732605 1.3060808181762695 0.6073659658432007 -1.5337468385696411 0.36542215943336487 -0.4627094864845276 0.3799941837787628 -0.4773724675178528 0.6580573320388794
unique 0.10289300233125687 0.2348771095275879 0.03701091930270195 -0.6663370132446289 -0.0020174626260995865 -0.8195575475692749 1.189152479171753 0.2891291379928589 -0.16693000495433807 -0.32167336344718933 0.1710205078125 0.10538581758737564 1.1844364404678345 0.05226358771324158 0.9164820313453674 0.46178731322288513 0.33089378476142883 0.8130247592926025 0.10633033514022827 -0.4489874243736267 0.41008657217025757 0.2302323430776596 0.019596725702285767 0.17928606271743774 -0.3353869616985321 -0.1857326626777649 -0.5781601071357727 -0.4561218321323395 0.1944875568151474 0.47987863421440125 0.3494850993156433 0.49172013998031616 0.02897895872592926 1.0440114736557007 -0.001226990600116551 -0.32114726305007935 -0.22304251790046692 0.1403874009847641 -0.2526436150074005 -0.5507676601409912 -0.41560760140419006 0.8597230911254883 0.08565040677785873 0.5714918971061707 0.748126745223999 0.13895142078399658 1.527611255645752 -0.20332302153110504 0.21061648428440094 0.03366107866168022 0.42119768261909485 0.34776973724365234 0.0500321090221405 -0.6735895276069641 0.9204120635986328 -0.28182733058929443 0.5862098932266235 0.8541713953018188 0.6677193641662598 0.18439944088459015 -1.278021216392517 0.2787300944328308 -0.1938156932592392 0.12445901334285736 -0.7018306255340576 -0.39229241013526917 0.9018344283103943 0.22605359554290771 -1.2554551362991333 -0.7119393944740295 -0.3243277668952942 0.4140813946723938 0.6956217288970947 0.13798853754997253 0.49873048067092896 0.5006047487258911 -0.23611228168010712 -0.1997765451669693 -1.2516800165176392 0.24754983186721802 0.21495580673217773 -0.23928655683994293 0.8120039105415344 0.09369631856679916 0.5529870986938477 0.12313622981309891 -0.0027879117988049984 -0.5796793699264526 0.5636111497879028 0.46064579486846924 -0.26811477541923523 -0.2675076723098755 -0.005160284694284201 0.21286523342132568 -0.1674584448337555 -0.4194878935813904 0.7944782972335815 -1.1437652111053467 -0.40266507863998413 -0.10528598725795746
reality -0.18729104101657867 -0.5975006222724915 1.4009445905685425 -0.058912213891744614 0.3654327392578125 0.45268335938453674 -0.5514703392982483 0.3211771547794342 0.8770063519477844 0.6153297424316406 -0.4290243089199066 6.235707551240921E-4 0.11402879655361176 -0.4350195825099945 -0.17533905804157257 -0.24724869430065155 -0.36956286430358887 0.24283228814601898 0.22504349052906036 0.13341185450553894 0.7873328328132629 -0.37030142545700073 0.261772483587265 0.8372732996940613 -0.015378555282950401 -0.3965468108654022 -1.3254876136779785 -0.2632109820842743 -0.4302891790866852 -0.6999979615211487 0.6765856742858887 -0.8929719924926758 -0.24227015674114227 -0.9944565296173096 -0.3997117877006531 -0.030544061213731766 -0.3186156153678894 0.5335260033607483 0.20295798778533936 0.6371423602104187 -1.256169319152832 0.6302288770675659 -0.008774874731898308 -0.02425043284893036 -0.4017016887664795 -0.6475374102592468 -1.0156246423721313 0.042565107345581055 -0.18020187318325043 -0.44859579205513 0.2731949985027313 -0.5659139156341553 -0.39407655596733093 -0.11501314491033554 -0.9142869710922241 -1.3004560470581055 0.36943328380584717 -0.11032981425523758 0.34719958901405334 0.8638558387756348 0.49763035774230957 0.35743093490600586 -0.13416212797164917 -0.7516779899597168 0.9314106106758118 0.14987441897392273 -0.3607678711414337 -0.5588538646697998 -0.7039415836334229 0.020125163719058037 0.2366403490304947 -0.5760053992271423 0.3614886403083801 -0.21799486875534058 0.7331913709640503 -0.6362863183021545 0.7051568031311035 0.6981238126754761 -0.14695902168750763 -0.043330758810043335 -0.5753875374794006 0.11795789748430252 -0.9812312722206116 -0.09073104709386826 -0.20585393905639648 -0.38430866599082947 -1.299290657043457 0.4424361288547516 0.3290744721889496 -0.43167048692703247 0.3928735852241516 -0.48597708344459534 0.07500287890434265 0.2916284501552582 -0.5183528661727905 -0.36761781573295593 -0.8605279922485352 0.9041500687599182 0.6551050543785095 0.23879727721214294
must -0.1080552488565445 -0.3639276325702667 1.0442233085632324 -0.14500509202480316 -0.3640938103199005 0.33616170287132263 0.7815872430801392 0.2997278571128845 -0.4532625377178192 0.5420073866844177 -0.7879944443702698 -0.4496481120586395 0.9505148530006409 0.03869711607694626 0.4497053325176239 -0.09943271428346634 -0.4643772840499878 0.27927395701408386 0.08577815443277359 -0.007595176808536053 -0.21784165501594543 0.5079012513160706 0.5754977464675903 -0.9087784886360168 0.02905205450952053 1.0900534391403198 0.007945961318910122 0.13863834738731384 -0.054730743169784546 -0.8122450113296509 -0.37793299555778503 0.25857236981391907 -0.01114649698138237 0.33638709783554077 -1.2651997804641724 -0.8179435729980469 0.4589146673679352 0.5920429825782776 0.4742873013019562 0.8426946997642517 0.2802281081676483 0.331918865442276 -0.6483923196792603 -0.06419146806001663 -0.32030749320983887 -0.8819742202758789 -0.9100001454353333 0.42016786336898804 0.11924992501735687 0.13804034888744354 -0.4587095081806183 0.24275924265384674 0.18445304036140442 0.24754337966442108 -1.2169584035873413 -0.5362513661384583 -0.6155447959899902 -0.4661742150783539 0.11603806912899017 -0.0859638899564743 0.39045628905296326 0.7749010920524597 0.5688793063163757 -0.4322171211242676 1.386993169784546 -0.06319716572761536 0.09729688614606857 -0.15853480994701385 0.4694156348705292 0.41457703709602356 -0.18247857689857483 -0.594919741153717 1.2316157817840576 0.25640007853507996 -0.03468449041247368 0.3431808650493622 0.013520332053303719 0.3118431270122528 -0.19209271669387817 0.09897599369287491 -0.40390515327453613 0.0254504531621933 0.6220996379852295 -0.1605086773633957 0.10192570090293884 -0.33656591176986694 -0.9703717231750488 0.1669316440820694 -0.5837337374687195 0.12679195404052734 -0.5481226444244385 0.8385009169578552 -0.2132922261953354 -0.5424990653991699 -0.5321100950241089 0.03805355727672577 -0.3401515483856201 -0.14283917844295502 0.027143293991684914 -0.5561891198158264
items -0.6351326704025269 0.42377856373786926 0.10529524832963943 0.7372428774833679 -0.29445013403892517 -0.45550939440727234 -0.050353992730379105 0.8759943246841431 -0.6841328740119934 -0.46482330560684204 -0.634188711643219 -0.1787150502204895 0.3156992495059967 0.10554932802915573 0.8404102325439453 -0.28773579001426697 -0.17325063049793243 -0.8410024642944336 0.3058829605579376 -0.14180472493171692 -0.8412551879882812 0.37409508228302 0.830878496170044 -0.045260239392519 -0.17401504516601562 -0.31048449873924255 0.1822819858789444 0.508419930934906 0.20164644718170166 -0.7644196152687073 0.6634689569473267 -0.49656441807746887 -0.30458226799964905 0.8569169640541077 0.7520777583122253 0.01181635633111 0.19662249088287354 0.47874006628990173 0.22620385885238647 0.33130648732185364 -1.5042475461959839 0.7161914110183716 -0.8124572038650513 -0.09912169724702835 0.5860846042633057 -0.133454829454422 0.1393783688545227 -0.23419515788555145 -0.6951794028282166 0.08238083124160767 -0.2442847192287445 0.6493553519248962 -0.2523477077484131 -0.23132839798927307 0.7171221971511841 0.31961843371391296 0.048908960074186325 -0.0825219377875328 -0.03951780125498772 -0.3618457317352295 -1.258475661277771 -1.2520463466644287 0.8862274885177612 0.07758019864559174 0.3132075369358063 0.6475273966789246 0.7993122339248657 -0.05519644543528557 0.14740422368049622 -0.26456382870674133 0.4073013663291931 0.016489341855049133 -0.39605477452278137 -0.2821573317050934 0.010897262021899223 0.07484740763902664 -0.5180069208145142 0.30385133624076843 -0.9705418348312378 -0.2176646590232849 0.34318891167640686 -0.30362504720687866 0.6035408973693848 0.5101491808891296 -0.7082182168960571 0.815244197845459 -0.5057263970375061 -0.17681792378425598 -0.46550261974334717 0.6465162634849548 -0.731901228427887 0.7139979600906372 -0.04962592571973801 -0.11631900817155838 -0.5992608070373535 0.2570318877696991 -0.40541040897369385 -0.5166000127792358 0.8392257690429688 0.9518025517463684
much 0.2894982397556305 0.33665263652801514 0.8787939548492432 -0.08536037802696228 0.3881818950176239 -0.4340875446796417 0.05313750356435776 -0.1862010806798935 0.2402023822069168 0.09144260734319687 0.44538918137550354 -0.6856141686439514 0.2600109279155731 0.20853100717067719 -0.07675965875387192 0.06721493601799011 -0.8696497678756714 -0.7296344041824341 -0.41582682728767395 0.39720845222473145 -0.7405003309249878 -0.007328991312533617 -0.39363840222358704 -0.3869532346725464 0.7695447206497192 0.6128606796264648 -0.30156174302101135 -0.3544323742389679 -0.5299177765846252 0.7200490236282349 -0.25748211145401 -0.07358759641647339 -0.5594807267189026 -0.15142683684825897 -0.27165067195892334 -0.2736888825893402 -0.3834008276462555 -0.014715731143951416 -0.07649102061986923 -0.27072617411613464 1.0629379749298096 -0.8215650320053101 0.6878196001052856 0.5276021361351013 -0.22959557175636292 -0.06038541719317436 0.44223833084106445 -0.13281700015068054 -0.38842108845710754 0.010524340905249119 0.6766642928123474 0.22945693135261536 -0.2851243019104004 -0.15743732452392578 -1.120173454284668 -0.05344855412840843 -0.754544198513031 0.3150736391544342 0.3942122161388397 0.4909093677997589 -0.29818636178970337 -0.7243450880050659 0.34339281916618347 -0.9471299648284912 0.13704508543014526 0.3005102276802063 -0.9223111867904663 -0.13549616932868958 0.10955697298049927 -0.13545089960098267 -0.1451697051525116 -0.13164298236370087 -0.9224874973297119 0.029723675921559334 1.2037737369537354 0.614859402179718 0.19485488533973694 0.13009503483772278 1.0709762573242188 -0.23180508613586426 -0.8316870927810669 0.03513340279459953 0.5008902549743652 0.09041374921798706 1.2256275415420532 0.4324794113636017 -1.3980828523635864 0.3529243767261505 0.43438661098480225 -0.11322042346000671 -0.8284972310066223 -0.20347319543361664 0.01342316810041666 -0.5393473505973816 0.417073130607605 -0.8215331435203552 -0.22516104578971863 -0.6130346059799194 -0.1262603998184204 0.6585482358932495
minus 0.13457882404327393 0.777191162109375 -0.3373953104019165 -0.04906381666660309 0.7320849299430847 -0.9038251042366028 -0.4154079258441925 -1.2126463651657104 1.2365976572036743 -0.19424711167812347 -1.5211799144744873 -0.07727210223674774 -0.554817259311676 1.0284258127212524 0.5690402388572693 0.2691805958747864 -1.6574466228485107 -1.4732412099838257 0.05790969729423523 0.18503384292125702 0.35162419080734253 0.19210046529769897 -0.4719938039779663 0.7215657234191895 -0.545197606086731 0.6412322521209717 0.2905517816543579 -0.44733861088752747 1.0259745121002197 0.20239703357219696 2.1007838249206543 0.8253194689750671 0.09678585082292557 0.5007702112197876 0.8626430630683899 1.3631017208099365 0.18421119451522827 -0.28194621205329895 0.0015155286528170109 -0.7419707775115967 0.14343464374542236 -0.5030032992362976 -0.9392814040184021 0.11572561413049698 0.20239336788654327 -0.06874246150255203 -0.08143103122711182 -1.7608106136322021 -0.3980396091938019 -0.2766116261482239 -0.22328846156597137 -1.7696703672409058 -0.7831836938858032 0.6899123191833496 0.4475419223308563 -1.0599286556243896 -0.002987021580338478 -0.47392958402633667 -0.32848677039146423 -0.1839657872915268 -0.4965567886829376 0.02686217986047268 -0.8182058334350586 -0.09105133265256882 -0.3233610689640045 1.4032624959945679 0.24549321830272675 -0.41418084502220154 -1.1502336263656616 1.1268854141235352 0.3243597149848938 0.3245193660259247 -1.3429865837097168 -0.2853523790836334 -0.16269923746585846 0.6456583738327026 0.43655580282211304 -0.28614774346351624 -0.3545854985713959 -0.7638593316078186 1.2048290967941284 0.266300767660141 0.07208245247602463 -0.10950573533773422 0.06905876845121384 1.416677474975586 0.3217553496360779 -0.12361977249383926 0.32630929350852966 -0.10582653433084488 -1.1385096311569214 0.014196710661053658 0.2678472697734833 -0.9337740540504456 0.46281588077545166 -1.2921006679534912 -0.24017003178596497 0.16923578083515167 -0.6775016188621521 0.09266055375337601
deal -0.7836588025093079 0.8272950649261475 0.35654664039611816 -0.1552979052066803 0.07289212197065353 0.18337062001228333 -0.20798198878765106 0.9880224466323853 0.3771239221096039 0.023026911541819572 -0.7615951299667358 -0.22599168121814728 -0.7291924357414246 0.11062557250261307 0.8242610692977905 -0.08017656952142715 -0.3758683204650879 -0.27225029468536377 -0.1988966464996338 -0.6376775503158569 -0.42760252952575684 0.7693639397621155 0.8087195158004761 -0.21306093037128448 0.778275191783905 -0.24258430302143097 0.8063216805458069 1.6597905158996582 0.4273204505443573 0.6460266709327698 -0.9967427253723145 -0.3453717827796936 -0.4269787073135376 -0.5857040286064148 -0.6101251840591431 0.6373215317726135 0.3288837969303131 -0.14082852005958557 -1.051789402961731 -0.057672735303640366 -1.0443099737167358 0.30258995294570923 -0.16419799625873566 -0.5942394733428955 -0.45976391434669495 0.9676394462585449 -0.36272817850112915 0.8144765496253967 -1.7894502878189087 -1.2010107040405273 0.16264106333255768 -0.11774077266454697 0.08229638636112213 -0.22590027749538422 0.080086849629879 -0.5858076810836792 -0.5894495844841003 -0.4944779574871063 -0.5924080610275269 -0.2797297537326813 -0.1974310278892517 0.6610193848609924 0.7457866072654724 1.2859786748886108 1.047419786453247 -0.9687604904174805 0.27936455607414246 0.7878375053405762 -0.5509005784988403 0.5618658065795898 -0.5480122566223145 -0.12142699211835861 -0.2976360321044922 0.29292839765548706 -1.995962142944336 -0.3399159014225006 0.3997253179550171 1.184531331062317 -0.771578848361969 -0.7728303670883179 -0.20601886510849 0.00618154089897871 0.5824916362762451 0.3365687429904938 -0.15971116721630096 -0.504618763923645 -0.7990089654922485 0.19244611263275146 1.1418356895446777 0.4765503406524658 0.577366054058075 1.889847993850708 -0.12698140740394592 1.2383034229278564 0.21862152218818665 -0.9788498878479004 -0.8359241485595703 0.019219957292079926 -1.6614643335342407 -0.11794770509004593
providing -0.3407526910305023 -0.12206792086362839 0.15185366570949554 -0.4158709645271301 0.24432283639907837 0.2967611253261566 -0.2447172999382019 0.2952547073364258 0.8583458065986633 0.25043341517448425 0.3143801987171173 0.447843998670578 0.5784526467323303 1.2418633699417114 0.11676698923110962 0.1898098587989807 1.202962040901184 -1.0503875017166138 -0.21734176576137543 0.5286824107170105 -0.46575137972831726 1.8067941665649414 -1.4609310626983643 -0.7640443444252014 -0.009078525006771088 -0.6967707276344299 -0.24459043145179749 -0.3324444591999054 0.6447620987892151 -0.14340099692344666 -0.19427832961082458 1.024764895439148 0.3693264424800873 0.42843183875083923 0.41852301359176636 0.7199884057044983 0.06952405720949173 -0.1592513620853424 -0.06202766299247742 -0.4571608603000641 0.09031654894351959 0.2614882290363312 1.0869866609573364 -0.43860360980033875 0.9629555940628052 -0.3322784900665283 1.4931023120880127 0.06716350466012955 0.7447099685668945 -0.5377926230430603 -0.25950363278388977 0.9123099446296692 0.060952845960855484 -0.537945568561554 -0.22468996047973633 -0.5680156946182251 0.11905678361654282 0.4896465539932251 0.2298223227262497 -0.2930424213409424 -0.4901497960090637 0.051686130464076996 -0.017998099327087402 0.2981029450893402 -1.3275941610336304 -0.01926708221435547 0.3502727746963501 0.4758411645889282 0.030142970383167267 7.006622618064284E-4 -0.36719030141830444 -0.3071209490299225 0.03170718997716904 -0.5491336584091187 0.7625113129615784 0.46658754348754883 -0.18577426671981812 0.5881848335266113 -0.8678675293922424 0.18597730994224548 -0.8791662454605103 0.22072535753250122 0.6728451251983643 0.2012682855129242 0.9241907000541687 1.005696177482605 -0.8782253265380859 -1.1588962078094482 0.5277647376060486 -0.34511080384254456 -0.3502345085144043 -0.016650177538394928 -0.17768944799900055 -0.016165336593985558 0.02091098763048649 -0.44858917593955994 -0.15121495723724365 0.5240984559059143 -0.29876333475112915 -1.0387996435165405
be 0.47949036955833435 0.5623927712440491 -0.010239103808999062 0.06271819025278091 -0.38096776604652405 0.06097086891531944 0.14683973789215088 0.5959185361862183 -0.08930280804634094 -0.9723000526428223 0.9925915002822876 -0.3609228730201721 0.1996402144432068 -0.12574389576911926 0.5414317846298218 0.23920388519763947 -0.4705027937889099 -0.5249083638191223 -0.22886447608470917 0.5254669785499573 -0.012494325637817383 0.23788653314113617 -0.08501344174146652 -1.0153224468231201 -0.12458920478820801 0.17991657555103302 -0.7358068227767944 -0.035853274166584015 0.12638519704341888 0.038323983550071716 -0.3412046730518341 0.09825336933135986 -0.897148072719574 -0.1617807000875473 -0.27651989459991455 -0.5200490951538086 -0.4315566122531891 -0.26696905493736267 0.6920563578605652 0.38205966353416443 0.34467029571533203 -0.7525451183319092 -0.14351481199264526 0.2798812985420227 -0.08225683122873306 -0.004818556364625692 -0.3755645751953125 0.15611357986927032 -0.7797497510910034 0.2359328269958496 -0.27807483077049255 -0.4318144917488098 -0.21272318065166473 -0.5758534073829651 0.2177460789680481 -0.2757174074649811 -0.44866544008255005 0.21688467264175415 -0.39138880372047424 0.48130470514297485 0.360790491104126 0.07252224534749985 -0.06420299410820007 -0.4331907033920288 -0.01999138668179512 -0.06001713499426842 0.39817923307418823 0.5553026795387268 -0.40445807576179504 0.4866902530193329 -0.6262000799179077 -0.3228614330291748 0.5366608500480652 0.8903971910476685 0.22461479902267456 0.22692367434501648 -0.7962151765823364 -0.475280225276947 -0.7568203806877136 0.630419909954071 -0.19855791330337524 0.2834446132183075 0.019708946347236633 -0.1702810674905777 -0.23033276200294495 -0.15410864353179932 -0.3433570861816406 -0.12464618682861328 -0.6822214722633362 -0.21718406677246094 -0.2680273652076721 0.8107273578643799 -1.3481682538986206 0.16350813210010529 -0.07374782860279083 -0.01984444260597229 0.17272990942001343 -0.2731219232082367 -0.47914981842041016 0.681804358959198
document -0.43876856565475464 -0.4511987566947937 0.6957895755767822 0.883607029914856 0.32653412222862244 -0.9419511556625366 -1.0930614471435547 0.06468261778354645 -0.211497962474823 0.6926572918891907 0.7740073800086975 -0.2061070054769516 0.5939191579818726 0.5958855748176575 -0.046239666640758514 -0.6774712204933167 0.19455724954605103 -0.3427634835243225 -0.42499297857284546 0.6891925930976868 -0.016664696857333183 -0.521484375 0.515182375907898 -0.718847393989563 -0.12458771467208862 -0.3047521114349365 -0.4364755153656006 0.1135595515370369 0.3884265720844269 0.5182254314422607 0.17708036303520203 0.8803176879882812 0.8688026070594788 -0.21408915519714355 0.5330119132995605 -0.6335310339927673 0.40639618039131165 -0.19641244411468506 -0.4531835615634918 -0.13446782529354095 -0.2048201709985733 -0.2764292359352112 0.12073596566915512 -0.04446543753147125 -0.27503225207328796 -0.41049814224243164 -1.0058436393737793 0.7298018336296082 -0.2837520241737366 1.539374828338623 0.2162616103887558 0.3293788433074951 -0.3788803219795227 -0.06706137210130692 0.44433170557022095 0.7146580219268799 -0.36362212896347046 0.5114926695823669 0.4645005166530609 -0.07868494838476181 -0.39347171783447266 0.36968642473220825 0.9742456078529358 1.5679329633712769 -0.594513475894928 -0.04797734320163727 0.44860661029815674 -0.2093885987997055 0.9601144790649414 -0.5105502009391785 -1.3335871696472168 -0.7514310479164124 0.8236714601516724 -0.0012290123850107193 -0.9653379321098328 -0.5522122383117676 0.6422350406646729 0.01556514110416174 0.22516262531280518 -0.3472423851490021 0.011827763170003891 -0.29938042163848877 -0.44233474135398865 0.8297292590141296 -0.4332478940486908 -0.6221552491188049 0.3245146870613098 -0.32363754510879517 -0.5482397675514221 -0.2875855565071106 0.16848687827587128 0.3116985857486725 0.9022036790847778 0.17742514610290527 0.01777225360274315 -1.2313141822814941 1.4007256031036377 0.024004995822906494 -0.5203021764755249 1.0378544330596924
another -0.4699326455593109 0.6799082159996033 -0.05308045446872711 0.14983750879764557 -0.2918210029602051 -0.02264072187244892 -0.6370988488197327 0.9856036901473999 1.006782054901123 -0.2898705303668976 0.6559937596321106 -0.2371290922164917 -0.4004628360271454 -0.01338174007833004 0.011558113619685173 0.43203121423721313 -0.05890994891524315 -0.13456207513809204 -0.20145414769649506 -1.2785706520080566 -0.2860061824321747 0.1132887601852417 0.05489727482199669 0.7783949971199036 -0.6024468541145325 -0.019278237596154213 -0.018048731610178947 0.6349617838859558 0.47432565689086914 -0.4213154911994934 -0.14930297434329987 0.8354413509368896 0.39699786901474 0.39790046215057373 -0.2888006567955017 -0.02910308726131916 0.24891537427902222 -0.1252291202545166 -0.021537557244300842 0.18912741541862488 -0.25756558775901794 0.17896921932697296 -0.32507720589637756 -1.049147129058838 1.424778699874878 1.0612221956253052 -0.006939135026186705 0.1594579964876175 -0.7863490581512451 -1.3039443492889404 0.6680296063423157 0.039562150835990906 -0.7209850549697876 0.33968403935432434 -0.7594820261001587 0.016506055369973183 0.1523541510105133 -0.25448375940322876 0.6206827759742737 -0.4803495407104492 0.027576178312301636 0.6115018129348755 1.1068259477615356 -0.1556968092918396 -0.2880326211452484 0.2553597092628479 -0.7713018655776978 -0.4569395184516907 0.13920535147190094 0.023541627451777458 0.6414179801940918 1.4587763547897339 0.04355499893426895 0.8222344517707825 -0.42336446046829224 0.29515963792800903 0.4334634244441986 -0.5261971950531006 0.2927967309951782 -0.05972893163561821 0.4159693121910095 0.4728038012981415 0.2447900027036667 -0.06338182836771011 0.5830259919166565 -0.6352109909057617 -0.13763032853603363 0.7917162775993347 -0.7773880362510681 -0.24320010840892792 -0.8434600830078125 -0.2252938449382782 -0.35920825600624084 0.12437543272972107 -0.04269913211464882 0.0071382103487849236 -0.14760465919971466 0.4485109746456146 0.9349028468132019 -0.10707433521747589
long -0.28618115186691284 -0.20680713653564453 0.2602410912513733 -0.7294242978096008 0.12991634011268616 0.4127606451511383 0.05581330135464668 0.27085551619529724 -0.2837262749671936 0.048544399440288544 0.2960466146469116 0.3185626268386841 0.03363742306828499 -0.4657207131385803 -0.22193783521652222 -0.6329424381256104 0.5821858644485474 -0.47178128361701965 -0.4095406234264374 0.4149433970451355 0.32848072052001953 0.0857892632484436 -0.6122086644172668 0.001606416655704379 -0.6809906363487244 0.6930497288703918 -0.13399681448936462 -1.1214057207107544 0.8087067604064941 0.47897791862487793 -0.15477006137371063 -0.9343406558036804 0.8345867991447449 0.4381287693977356 0.042473405599594116 -0.3363059461116791 -0.8689090609550476 -1.708583950996399 0.5045855045318604 -0.33806973695755005 -0.2608102560043335 0.9532727599143982 -0.3313123881816864 0.8039489388465881 1.0079991817474365 -1.0431551933288574 -0.37839582562446594 -0.5814271569252014 0.6689069271087646 -0.8834902048110962 0.9903898239135742 0.45067843794822693 -0.597795307636261 -0.17164553701877594 0.5323289036750793 -0.09495917707681656 0.3823625147342682 0.2845633327960968 -0.6117836833000183 0.4108794629573822 0.10151393711566925 -0.2293195277452469 -0.292434960603714 -0.21719495952129364 -0.1489315927028656 0.6710147261619568 0.11212322860956192 -0.7069096565246582 0.49757295846939087 -0.3872931897640228 -0.5294473171234131 0.6093127727508545 0.312046080827713 0.8586764335632324 0.2788698971271515 0.14166401326656342 0.5546179413795471 0.5121200680732727 0.17443911731243134 -1.13368821144104 0.99211585521698 -0.15708096325397491 -0.04755231365561485 -0.15974365174770355 0.1898512840270996 -1.2126847505569458 -0.33756697177886963 -0.5006083846092224 0.28102296590805054 -0.7036662697792053 0.17410679161548615 0.40680262446403503 0.5820640921592712 0.1433732509613037 0.6043308973312378 -0.8218680620193481 -0.8677237629890442 -0.915511965751648 0.909988522529602 0.6141465902328491
worth 0.8175879120826721 0.25799989700317383 -1.0710424184799194 0.17961113154888153 0.822174608707428 -1.8505465984344482 0.6524672508239746 1.3496720790863037 0.6020731925964355 0.5757980346679688 -0.4938177466392517 -0.5006088614463806 -0.12301527708768845 1.2224700450897217 0.49481990933418274 0.5439963936805725 0.7280162572860718 -0.5487679243087769 0.6919286847114563 -0.004325000569224358 0.07268763333559036 -0.9645953178405762 0.29034510254859924 -0.06794431805610657 1.0196032524108887 0.28785374760627747 0.16739019751548767 0.02059801295399666 -0.3878237009048462 -0.617542564868927 0.2935190200805664 0.756884753704071 0.7368907928466797 -0.5101258158683777 0.075754813849926 -0.01840137131512165 -0.47689661383628845 1.4692543745040894 -0.1991758495569229 -0.5862086415290833 0.23033063113689423 -0.6171571016311646 -0.35310816764831543 -0.15035325288772583 0.2678653597831726 -1.0246793031692505 0.7190064191818237 -0.35447776317596436 -0.49839678406715393 -0.26294881105422974 -0.1257888823747635 -0.06063538417220116 -1.0594044923782349 -0.25083088874816895 1.0335925817489624 -0.45736464858055115 0.14082194864749908 -0.5718386173248291 -0.634740948677063 -0.6336209177970886 0.7371980547904968 0.8194863796234131 -0.29267317056655884 -0.12787935137748718 0.30695438385009766 0.6064030528068542 -1.2896474599838257 0.5975674986839294 1.6827473640441895 -0.4199863076210022 0.28501296043395996 -0.2655687928199768 0.18421003222465515 -0.004042917396873236 -0.6711655855178833 0.4515995383262634 -0.31488507986068726 0.16035865247249603 -1.2897008657455444 -1.305419921875 -0.16185683012008667 0.4533756375312805 -0.9687193036079407 -0.567334771156311 -0.028472937643527985 -1.1746948957443237 0.09895697981119156 -0.5462207198143005 0.8883090019226074 -0.1610284149646759 -1.0022096633911133 -0.23159776628017426 -0.08673682063817978 -0.3624361753463745 0.6828843355178833 -1.7912073135375977 -0.6520255208015442 -0.25969818234443665 0.8555706739425659 -0.5065163969993591
example 0.2026415914297104 -0.9096046090126038 0.1540713906288147 -0.7484578490257263 -0.8604145050048828 0.3660888671875 -0.43860170245170593 -0.26132944226264954 0.6809000372886658 0.3964233696460724 -0.3626309037208557 -1.1793544292449951 0.33397915959358215 -0.47335028648376465 0.7518875598907471 0.7251665592193604 0.9832128882408142 0.4166173040866852 -0.5181772708892822 0.11628888547420502 1.1896530389785767 0.7517238855361938 0.019932521507143974 1.156106948852539 -0.39249175786972046 0.5098826289176941 0.30363333225250244 -0.5121672749519348 -0.10706781595945358 -0.2749156951904297 -0.36849310994148254 -1.1196868419647217 -0.3710465431213379 -0.16044114530086517 -0.059816598892211914 0.1575692743062973 -0.005227279383689165 0.4135040044784546 -0.20630812644958496 0.8278813362121582 -0.5837288498878479 -0.47087064385414124 -0.25341475009918213 0.1848132461309433 0.7347543239593506 0.23221614956855774 0.5590978860855103 -1.1898295879364014 0.3575834333896637 0.41523879766464233 0.21962782740592957 0.02583017386496067 0.020936444401741028 -0.48798656463623047 -0.6444615721702576 -0.4963480532169342 -0.46699801087379456 -1.0458199977874756 0.08262596279382706 0.2745065689086914 0.5757635831832886 -0.4800015091896057 0.18440407514572144 0.6754738688468933 0.24831773340702057 -0.37740558385849 0.707223653793335 0.036414213478565216 0.49044665694236755 1.0231947898864746 1.5266896486282349 0.15743812918663025 0.4840494692325592 0.10648414492607117 -0.08785023540258408 0.07423155754804611 0.35811880230903625 0.16300749778747559 -0.7992338538169861 0.5910030603408813 0.31351152062416077 0.09578900784254074 0.8756511211395264 0.32669350504875183 -0.09814881533384323 0.06793127954006195 -1.684287190437317 -0.2589757740497589 -0.5779473781585693 -0.19720277190208435 0.09684354066848755 3.3908922341652215E-4 0.4265672266483307 0.04691944643855095 0.04451249912381172 0.018205638974905014 -0.08406151086091995 -0.8659650683403015 0.5363732576370239 -0.38729438185691833
result -0.29104527831077576 0.6012929677963257 -0.8167392611503601 -0.8963528275489807 -0.6693772673606873 -1.3566421270370483 1.0514392852783203 0.2688511610031128 0.32625046372413635 -0.28101494908332825 -0.8705523610115051 -0.6828599572181702 -0.17855781316757202 0.18877993524074554 0.4676835238933563 -0.4005083441734314 0.4495019316673279 -0.8624092936515808 0.6190042495727539 0.06884579360485077 -0.034618888050317764 -0.11331162601709366 0.6660911440849304 0.13026957213878632 0.059049785137176514 0.5950894355773926 -0.3890262544155121 -1.3660601377487183 -0.21710969507694244 -0.35783907771110535 0.29685676097869873 0.3412022292613983 0.5056300163269043 0.021596135571599007 -0.39418283104896545 -0.1104670837521553 0.5020533800125122 0.883660614490509 -0.5521481037139893 -1.6917248964309692 0.774928867816925 0.46928128600120544 -0.0611262246966362 0.44501975178718567 0.7072094082832336 -0.08635853976011276 -0.14309020340442657 -0.3474041223526001 -0.16430804133415222 -0.06924687325954437 -0.6963297724723816 0.6242364645004272 -0.2976091802120209 0.8177167177200317 0.4926316738128662 0.09751338511705399 -1.2648303508758545 -1.0739516019821167 0.15949290990829468 0.031234029680490494 0.7094088196754456 0.30845028162002563 -0.5094291567802429 0.25438588857650757 -0.8067448735237122 0.006553970277309418 0.5304964780807495 0.5841187238693237 0.6976628303527832 0.03051650896668434 0.1081068366765976 -0.6654730439186096 -0.6040012240409851 0.43198421597480774 0.1237984150648117 -0.5297706127166748 -0.7058541774749756 0.20000620186328888 0.3125220835208893 -0.6776210069656372 0.9246312975883484 0.2849385440349579 0.4734833240509033 0.4918367862701416 0.1294415146112442 -0.8841127157211304 0.789130687713623 -0.512275755405426 -0.21668344736099243 -0.4302220344543457 0.29705438017845154 -0.5883464813232422 0.22279849648475647 0.4864828288555145 -0.6411864757537842 0.2888781726360321 1.4243782758712769 0.13743728399276733 -0.6461001634597778 -0.2961166203022003
into -0.2122974395751953 -0.7566857933998108 0.3506154716014862 -0.7301693558692932 -0.6856588125228882 -0.49271729588508606 0.7670915126800537 -0.31544971466064453 -0.00440383143723011 0.346940279006958 0.38120484352111816 0.2943919897079468 0.20532862842082977 -0.1721780002117157 -0.5936702489852905 -0.44294413924217224 -0.7826362252235413 0.015579499304294586 -0.13537128269672394 -0.7327622771263123 0.08816375583410263 -0.9075299501419067 -0.24172069132328033 -0.12423348426818848 -0.3166574239730835 -0.6606975197792053 -0.2927357852458954 0.10281019657850266 -0.48800545930862427 0.052462805062532425 0.14690563082695007 0.7922973036766052 0.05500595644116402 -0.2894919514656067 0.15332558751106262 0.262948215007782 -0.9985499382019043 -0.08244569599628448 -0.3308272361755371 -0.9528637528419495 1.289934515953064 -0.28969016671180725 0.6252526044845581 -0.13516515493392944 0.1595419943332672 0.1397218406200409 0.44787776470184326 -0.9771186709403992 -1.1932353973388672 -0.07529903203248978 -0.24128051102161407 -0.36511096358299255 0.14017288386821747 0.3374042212963104 -1.2115131616592407 -1.0353964567184448 -0.6833366751670837 -0.6793095469474792 -0.2320593148469925 0.17271150648593903 0.18040883541107178 0.32418084144592285 0.20750728249549866 -0.21447940170764923 1.0292986631393433 -0.33875179290771484 -0.17666925489902496 0.7246257066726685 0.4194854497909546 0.7630229592323303 -0.15158699452877045 0.011613664217293262 -0.12275569140911102 -0.5041683912277222 0.6623250246047974 -0.1904459148645401 -0.54972904920578 -0.12999963760375977 -0.2518369257450104 0.6992633938789368 -0.6551598310470581 -0.5509315133094788 0.6290509700775146 -0.010805336758494377 1.124418020248413 0.1625678986310959 -0.2052496373653412 -0.3036423325538635 -0.09727731347084045 0.1026892364025116 -0.03312816470861435 -0.37757059931755066 0.08906809240579605 0.5318223237991333 0.4132969379425049 -0.47374069690704346 -0.04338651895523071 -0.2982289791107178 0.4839753210544586 -0.15862813591957092
how -0.10221000015735626 -0.3924643099308014 -0.03338366746902466 -0.677754819393158 -0.8487387895584106 -0.5439548492431641 0.12541446089744568 -0.3624245226383209 -0.02880425564944744 0.6651661396026611 0.2200855016708374 -0.08778560906648636 -0.329777330160141 0.722847044467926 -1.287050724029541 -0.27340689301490784 0.7064132690429688 0.09151282161474228 0.3400665521621704 -0.04758881404995918 0.39527982473373413 -0.09041764587163925 -1.2055879831314087 -0.788993775844574 -0.061615537852048874 -0.8819279670715332 -1.1048208475112915 0.03452499955892563 0.28142139315605164 -0.42565596103668213 -0.8609581589698792 0.6241005063056946 -0.5802911520004272 -0.6751251816749573 -0.8426662683486938 -0.14390911161899567 -1.0590282678604126 -0.23649758100509644 -0.6454726457595825 0.11992932856082916 0.576501727104187 0.217890664935112 0.7466148734092712 0.6580252051353455 0.13173936307430267 -1.5665792226791382 0.6833159923553467 -1.271594524383545 -0.5314832925796509 -1.0338958501815796 -0.7982649803161621 1.0507441759109497 -0.5288352966308594 -0.7614821195602417 -0.3281451165676117 -0.9177539348602295 0.05014927685260773 0.017062662169337273 0.9261962175369263 0.06555549055337906 0.029692595824599266 0.26900988817214966 0.43972712755203247 -0.28999999165534973 -0.005094069056212902 -0.886712372303009 -0.7841840386390686 0.4151765704154968 0.29044243693351746 0.03439066931605339 0.1193116083741188 0.5222241878509521 -0.2572546899318695 -0.9212242960929871 0.31097152829170227 0.3639708459377289 -0.7853527665138245 -0.2509850263595581 0.16753263771533966 0.7470405697822571 -0.22492052614688873 -0.08744171261787415 0.28295615315437317 0.6491387486457825 0.8200500011444092 -0.02620082162320614 -0.1594957858324051 -0.10362587124109268 0.26726627349853516 0.22427518665790558 -0.06186810880899429 0.19993111491203308 0.55772864818573 -0.11318732798099518 0.5673510432243347 -0.769973635673523 0.1899569183588028 -0.47467151284217834 -0.731711745262146 -0.37708979845046997
overdue -0.09112530946731567 0.2946658134460449 -0.625039279460907 0.5902799367904663 0.5870333313941956 -0.1962243765592575 0.6255759596824646 -0.17172986268997192 1.2252649068832397 -0.1408654749393463 -0.991120457649231 0.250063419342041 -0.8076786994934082 0.6225305199623108 -0.41122257709503174 -1.0276775360107422 -1.0708273649215698 0.3202889859676361 -0.10923752933740616 0.17194369435310364 0.2675511837005615 -0.6350346207618713 0.48491278290748596 0.7335083484649658 0.31732460856437683 -0.37174609303474426 -0.49326226115226746 0.12159071117639542 -0.9232799410820007 0.6629052758216858 0.5998960733413696 -0.9870715737342834 1.5206272602081299 -0.2760083079338074 0.6115319728851318 0.4158894419670105 -0.5738096237182617 1.1936513185501099 -0.08114101737737656 0.5781115889549255 0.23237593472003937 -0.7950725555419922 0.21446745097637177 0.44325217604637146 0.05765588954091072 0.40846922993659973 -0.6579594612121582 0.11204139143228531 -0.8224392533302307 -0.5992457270622253 -0.08416382968425751 0.2780446708202362 -0.5637717247009277 0.13678422570228577 -0.1779922991991043 -0.22477857768535614 -0.1256600022315979 0.5509462356567383 0.16269609332084656 0.13812072575092316 0.30608606338500977 -0.19096222519874573 -0.26054081320762634 -0.23449411988258362 -0.013514003716409206 0.4496181607246399 0.1844138354063034 -0.4040060341358185 -0.5745155215263367 -0.27125754952430725 -0.19470614194869995 -0.052817728370428085 -0.07529375702142715 -0.7424368858337402 0.3522195816040039 -0.6064478754997253 0.3704686760902405 -0.15212059020996094 0.28943657875061035 1.9990421533584595 0.48872849345207214 0.32230082154273987 0.6487916111946106 -0.3785220682621002 -0.20876142382621765 -0.7123324275016785 0.04438904672861099 1.0281565189361572 0.09924992173910141 -0.7322168350219727 0.6358960270881653 -0.2562221586704254 -0.5880969762802124 -0.679029643535614 0.159176766872406 -0.9193852543830872 -1.4208370447158813 0.401710569858551 0.6439920663833618 -0.04252193495631218
are -0.4398258924484253 -0.1809314489364624 0.32277166843414307 -0.4033586382865906 0.0018742111278697848 0.5933690071105957 -0.2157575935125351 -0.6387791633605957 0.09155367314815521 -0.3103300631046295 -0.30798542499542236 0.018142450600862503 -0.5854065418243408 0.11959219723939896 0.5752583742141724 0.23312027752399445 -0.07909791171550751 0.013401220552623272 -0.1524975597858429 -0.8339716196060181 -0.08494091778993607 -0.1685626208782196 -0.0794360414147377 -0.4918856918811798 0.24041740596294403 0.3790547847747803 -0.7484410405158997 -0.02300862781703472 -0.5475564002990723 0.06440279632806778 0.3767697215080261 -0.0617966465651989 0.49360743165016174 -0.07809258997440338 -0.08881989866495132 -0.05193636938929558 -0.21354584395885468 -0.456649512052536 -0.1029316633939743 0.21055448055267334 0.4013262391090393 -0.07012207806110382 0.1151656061410904 -0.5838882923126221 -0.06175973638892174 0.12753276526927948 -0.6872936487197876 -0.07984626293182373 -0.06865029036998749 -0.7285224795341492 0.08334488421678543 -0.019574761390686035 0.17658662796020508 0.2998221814632416 0.420946329832077 0.1778724193572998 -0.23620060086250305 -0.1395493447780609 -0.47719767689704895 0.703486979007721 -0.18650977313518524 -0.3599425256252289 0.20687614381313324 0.5614925622940063 -0.061623964458703995 -0.2808562219142914 -0.6501650214195251 0.37948542833328247 0.030796419829130173 -0.23494505882263184 -0.3674982786178589 -0.3977193534374237 0.3148767650127411 0.5987553000450134 -0.079765185713768 -0.5354714393615723 0.20953457057476044 -0.4803946614265442 0.26615169644355774 1.0178686380386353 0.3312583863735199 -0.10137179493904114 -0.3746640384197235 -0.7152124047279358 0.004421242047101259 -0.25541651248931885 -0.5432244539260864 -0.20786187052726746 0.1478690207004547 -0.2010919451713562 0.24318574368953705 -0.22259823977947235 -0.36453908681869507 -0.8212435245513916 0.2567979395389557 -0.4160166382789612 -0.5195291042327881 -0.2648342549800873 0.19299842417240143 0.3135274648666382
behemoth -0.6606847643852234 0.04337770864367485 -0.7730493545532227 1.4674474000930786 0.7140842080116272 -0.09410164505243301 -0.05233621597290039 -0.5892684459686279 -0.042349088937044144 -0.830991804599762 0.3415301740169525 0.3394802212715149 0.4715399742126465 0.3476143181324005 -0.9792700409889221 0.8376168608665466 0.4321902096271515 0.24850071966648102 0.9889798164367676 0.5940832495689392 1.0179136991500854 -0.38786742091178894 -0.5469881892204285 0.363569974899292 -0.5989421606063843 -0.02908194437623024 0.7635916471481323 0.6898871064186096 -0.4217793941497803 0.6296707987785339 0.7734864354133606 0.24973168969154358 -0.14149156212806702 -1.3371206521987915 -1.00576913356781 -0.6695783734321594 0.012567538768053055 0.8355621099472046 -0.6959513425827026 -0.3062569200992584 0.9924846291542053 0.13583387434482574 -0.6931882500648499 -0.4763733744621277 -0.9413356781005859 0.1313006728887558 0.29159316420555115 -0.2967817783355713 -0.6214422583580017 0.5332401394844055 -0.1530696600675583 0.05896522104740143 -1.015445351600647 -1.7609301805496216 -0.7603878974914551 -0.4209173023700714 -0.5213792324066162 -0.93965744972229 -0.4974975883960724 -1.006527066230774 0.18410104513168335 -0.16987578570842743 -0.5931722521781921 1.1358519792556763 0.37076935172080994 0.7587379813194275 0.24911509454250336 -1.68171226978302 0.43754148483276367 0.7295933961868286 0.5040717124938965 -0.9128594994544983 -0.017706502228975296 0.69210284948349 -1.0631046295166016 0.1619432270526886 -0.29894208908081055 -0.31265929341316223 0.24690257012844086 0.5825963020324707 0.4276011288166046 -0.7169052362442017 -0.17734313011169434 0.01869426853954792 0.22864970564842224 -0.8487539887428284 0.6288648247718811 0.07814976572990417 -0.28473618626594543 -0.5718456506729126 -0.531172513961792 -0.161998450756073 -1.1612333059310913 -0.3499862849712372 0.19869592785835266 -0.10390909761190414 -0.4275699257850647 0.5016832947731018 -0.5068976283073425 -0.29831022024154663
